<?xml version="1.0"?>
<opencv_storage>
<cascade>
  <stageType>BOOST</stageType>
  <featureType>HAAR</featureType>
  <height>50</height>
  <width>50</width>
  <stageParams>
    <boostType>GAB</boostType>
    <minHitRate>9.9500000476837158e-01</minHitRate>
    <maxFalseAlarm>5.0000000000000000e-01</maxFalseAlarm>
    <weightTrimRate>9.4999999999999996e-01</weightTrimRate>
    <maxDepth>1</maxDepth>
    <maxWeakCount>100</maxWeakCount></stageParams>
  <featureParams>
    <maxCatCount>0</maxCatCount>
    <featSize>1</featSize>
    <mode>BASIC</mode></featureParams>
  <stageNum>17</stageNum>
  <stages>
    <!-- stage 0 -->
    <_>
      <maxWeakCount>11</maxWeakCount>
      <stageThreshold>-1.5853995084762573e+00</stageThreshold>
      <weakClassifiers>
        <_>
          <internalNodes>
            0 -1 45 7.1994797326624393e-04</internalNodes>
          <leafValues>
            -7.4287521839141846e-01 1.2174525111913681e-01</leafValues></_>
        <_>
          <internalNodes>
            0 -1 67 2.0083807408809662e-02</internalNodes>
          <leafValues>
            -3.3440765738487244e-01 6.1173319816589355e-01</leafValues></_>
        <_>
          <internalNodes>
            0 -1 135 7.4190436862409115e-05</internalNodes>
          <leafValues>
            -4.9316313862800598e-01 2.9356721043586731e-01</leafValues></_>
        <_>
          <internalNodes>
            0 -1 273 -2.4356804788112640e-03</internalNodes>
          <leafValues>
            4.9434512853622437e-01 -2.3371267318725586e-01</leafValues></_>
        <_>
          <internalNodes>
            0 -1 148 -3.2837348990142345e-03</internalNodes>
          <leafValues>
            -7.5859916210174561e-01 1.5476173162460327e-01</leafValues></_>
        <_>
          <internalNodes>
            0 -1 102 1.1161206930410117e-04</internalNodes>
          <leafValues>
            -3.7586939334869385e-01 2.9789510369300842e-01</leafValues></_>
        <_>
          <internalNodes>
            0 -1 46 3.2442840747535229e-03</internalNodes>
          <leafValues>
            1.7363560199737549e-01 -7.7113640308380127e-01</leafValues></_>
        <_>
          <internalNodes>
            0 -1 112 3.0361978133441880e-05</internalNodes>
          <leafValues>
            -4.6378710865974426e-01 2.2507518529891968e-01</leafValues></_>
        <_>
          <internalNodes>
            0 -1 149 9.8089789389632642e-05</internalNodes>
          <leafValues>
            2.4853728711605072e-01 -5.5005580186843872e-01</leafValues></_>
        <_>
          <internalNodes>
            0 -1 224 -4.0365261957049370e-03</internalNodes>
          <leafValues>
            -7.1593809127807617e-01 1.4188714325428009e-01</leafValues></_>
        <_>
          <internalNodes>
            0 -1 314 1.6926665557548404e-04</internalNodes>
          <leafValues>
            -3.3417055010795593e-01 3.3048105239868164e-01</leafValues></_></weakClassifiers></_>
    <!-- stage 1 -->
    <_>
      <maxWeakCount>14</maxWeakCount>
      <stageThreshold>-1.4192463159561157e+00</stageThreshold>
      <weakClassifiers>
        <_>
          <internalNodes>
            0 -1 28 2.0882755052298307e-03</internalNodes>
          <leafValues>
            -7.5185734033584595e-01 7.2551388293504715e-03</leafValues></_>
        <_>
          <internalNodes>
            0 -1 215 -2.3820313799660653e-04</internalNodes>
          <leafValues>
            2.1499726176261902e-01 -5.1483219861984253e-01</leafValues></_>
        <_>
          <internalNodes>
            0 -1 92 3.4665965940803289e-03</internalNodes>
          <leafValues>
            9.8618716001510620e-02 -7.9091799259185791e-01</leafValues></_>
        <_>
          <internalNodes>
            0 -1 96 2.0745652727782726e-04</internalNodes>
          <leafValues>
            -3.4944298863410950e-01 3.3340212702751160e-01</leafValues></_>
        <_>
          <internalNodes>
            0 -1 83 1.4242361430660821e-05</internalNodes>
          <leafValues>
            -3.8828107714653015e-01 2.4886420369148254e-01</leafValues></_>
        <_>
          <internalNodes>
            0 -1 320 -7.5248780194669962e-04</internalNodes>
          <leafValues>
            4.0163066983222961e-01 -2.2379240393638611e-01</leafValues></_>
        <_>
          <internalNodes>
            0 -1 60 -6.5554611384868622e-02</internalNodes>
          <leafValues>
            4.3837308883666992e-01 -1.9034445285797119e-01</leafValues></_>
        <_>
          <internalNodes>
            0 -1 295 1.3851446565240622e-03</internalNodes>
          <leafValues>
            -1.8656146526336670e-01 4.8662796616554260e-01</leafValues></_>
        <_>
          <internalNodes>
            0 -1 126 1.8084370531141758e-03</internalNodes>
          <leafValues>
            1.4655540883541107e-01 -7.1101683378219604e-01</leafValues></_>
        <_>
          <internalNodes>
            0 -1 138 7.5174895755480975e-05</internalNodes>
          <leafValues>
            -4.4102850556373596e-01 2.2152264416217804e-01</leafValues></_>
        <_>
          <internalNodes>
            0 -1 63 4.6326470328494906e-04</internalNodes>
          <leafValues>
            -3.9485123753547668e-01 2.7285525202751160e-01</leafValues></_>
        <_>
          <internalNodes>
            0 -1 113 9.0972322504967451e-04</internalNodes>
          <leafValues>
            1.5711601078510284e-01 -7.5484675168991089e-01</leafValues></_>
        <_>
          <internalNodes>
            0 -1 48 9.9440407939255238e-04</internalNodes>
          <leafValues>
            8.9333340525627136e-02 -7.5730657577514648e-01</leafValues></_>
        <_>
          <internalNodes>
            0 -1 236 3.6493367515504360e-03</internalNodes>
          <leafValues>
            -2.2154714167118073e-01 4.2663231492042542e-01</leafValues></_></weakClassifiers></_>
    <!-- stage 2 -->
    <_>
      <maxWeakCount>13</maxWeakCount>
      <stageThreshold>-1.5441808700561523e+00</stageThreshold>
      <weakClassifiers>
        <_>
          <internalNodes>
            0 -1 89 2.1100263984408230e-04</internalNodes>
          <leafValues>
            -7.0397645235061646e-01 -2.6796588674187660e-02</leafValues></_>
        <_>
          <internalNodes>
            0 -1 207 -9.7174473921768367e-05</internalNodes>
          <leafValues>
            -7.7738153934478760e-01 1.0341241210699081e-01</leafValues></_>
        <_>
          <internalNodes>
            0 -1 207 1.9908048852812499e-04</internalNodes>
          <leafValues>
            1.6908740997314453e-01 -8.2706022262573242e-01</leafValues></_>
        <_>
          <internalNodes>
            0 -1 114 6.9860764779150486e-04</internalNodes>
          <leafValues>
            1.2827597558498383e-01 -6.0288715362548828e-01</leafValues></_>
        <_>
          <internalNodes>
            0 -1 11 3.3929392695426941e-02</internalNodes>
          <leafValues>
            -2.3059865832328796e-01 4.7945970296859741e-01</leafValues></_>
        <_>
          <internalNodes>
            0 -1 110 4.0546673699282110e-04</internalNodes>
          <leafValues>
            -3.6144474148750305e-01 2.8556728363037109e-01</leafValues></_>
        <_>
          <internalNodes>
            0 -1 210 -8.0614729085937142e-05</internalNodes>
          <leafValues>
            -3.7714594602584839e-01 2.3702472448348999e-01</leafValues></_>
        <_>
          <internalNodes>
            0 -1 208 4.1661289287731051e-05</internalNodes>
          <leafValues>
            1.6262485086917877e-01 -5.1395428180694580e-01</leafValues></_>
        <_>
          <internalNodes>
            0 -1 157 1.6255069058388472e-03</internalNodes>
          <leafValues>
            -2.7614235877990723e-01 3.7698259949684143e-01</leafValues></_>
        <_>
          <internalNodes>
            0 -1 185 2.0884569676127285e-04</internalNodes>
          <leafValues>
            1.4387612044811249e-01 -7.2715187072753906e-01</leafValues></_>
        <_>
          <internalNodes>
            0 -1 183 -2.8183430549688637e-04</internalNodes>
          <leafValues>
            -7.5836271047592163e-01 1.0948652029037476e-01</leafValues></_>
        <_>
          <internalNodes>
            0 -1 285 6.1041759327054024e-03</internalNodes>
          <leafValues>
            -1.5439803898334503e-01 5.7940882444381714e-01</leafValues></_>
        <_>
          <internalNodes>
            0 -1 284 -1.4255587011575699e-03</internalNodes>
          <leafValues>
            4.8367336392402649e-01 -1.9482958316802979e-01</leafValues></_></weakClassifiers></_>
    <!-- stage 3 -->
    <_>
      <maxWeakCount>16</maxWeakCount>
      <stageThreshold>-1.3745832443237305e+00</stageThreshold>
      <weakClassifiers>
        <_>
          <internalNodes>
            0 -1 27 8.6541962809860706e-04</internalNodes>
          <leafValues>
            -6.5409624576568604e-01 4.1039669886231422e-03</leafValues></_>
        <_>
          <internalNodes>
            0 -1 117 3.6069024645257741e-05</internalNodes>
          <leafValues>
            -4.7604957222938538e-01 1.7062869668006897e-01</leafValues></_>
        <_>
          <internalNodes>
            0 -1 38 6.4722597599029541e-03</internalNodes>
          <leafValues>
            1.2229501456022263e-01 -6.9283014535903931e-01</leafValues></_>
        <_>
          <internalNodes>
            0 -1 231 -5.8377318055136129e-05</internalNodes>
          <leafValues>
            2.2648863494396210e-01 -3.8957646489143372e-01</leafValues></_>
        <_>
          <internalNodes>
            0 -1 209 -6.5047323005273938e-04</internalNodes>
          <leafValues>
            -6.6409271955490112e-01 1.7388564348220825e-01</leafValues></_>
        <_>
          <internalNodes>
            0 -1 200 4.3489490635693073e-03</internalNodes>
          <leafValues>
            -1.7807722091674805e-01 5.8278763294219971e-01</leafValues></_>
        <_>
          <internalNodes>
            0 -1 218 -2.0991667406633496e-04</internalNodes>
          <leafValues>
            2.4868685007095337e-01 -3.6479234695434570e-01</leafValues></_>
        <_>
          <internalNodes>
            0 -1 316 7.7648047590628266e-04</internalNodes>
          <leafValues>
            -2.3243081569671631e-01 3.1421864032745361e-01</leafValues></_>
        <_>
          <internalNodes>
            0 -1 266 3.5478868085192516e-05</internalNodes>
          <leafValues>
            -2.4368369579315186e-01 2.9684829711914063e-01</leafValues></_>
        <_>
          <internalNodes>
            0 -1 85 2.0305314683355391e-04</internalNodes>
          <leafValues>
            -3.5701707005500793e-01 2.1689864993095398e-01</leafValues></_>
        <_>
          <internalNodes>
            0 -1 130 8.1411533756181598e-05</internalNodes>
          <leafValues>
            1.3348865509033203e-01 -5.7186889648437500e-01</leafValues></_>
        <_>
          <internalNodes>
            0 -1 219 1.9175355555489659e-04</internalNodes>
          <leafValues>
            7.9292103648185730e-02 -7.6910060644149780e-01</leafValues></_>
        <_>
          <internalNodes>
            0 -1 196 -2.8120405972003937e-02</internalNodes>
          <leafValues>
            -4.4572645425796509e-01 1.5261432528495789e-01</leafValues></_>
        <_>
          <internalNodes>
            0 -1 5 -9.1553723905235529e-05</internalNodes>
          <leafValues>
            2.9563164710998535e-01 -2.5372371077537537e-01</leafValues></_>
        <_>
          <internalNodes>
            0 -1 230 3.4914194839075208e-04</internalNodes>
          <leafValues>
            1.3260315358638763e-01 -6.3805282115936279e-01</leafValues></_>
        <_>
          <internalNodes>
            0 -1 124 8.7814941070973873e-04</internalNodes>
          <leafValues>
            7.5724065303802490e-02 -7.2665280103683472e-01</leafValues></_></weakClassifiers></_>
    <!-- stage 4 -->
    <_>
      <maxWeakCount>16</maxWeakCount>
      <stageThreshold>-1.3289755582809448e+00</stageThreshold>
      <weakClassifiers>
        <_>
          <internalNodes>
            0 -1 68 3.7744721339549869e-05</internalNodes>
          <leafValues>
            -6.3235294818878174e-01 -3.5904254764318466e-02</leafValues></_>
        <_>
          <internalNodes>
            0 -1 99 1.9246197189204395e-04</internalNodes>
          <leafValues>
            -3.8093164563179016e-01 2.3106320202350616e-01</leafValues></_>
        <_>
          <internalNodes>
            0 -1 69 1.2366331066004932e-04</internalNodes>
          <leafValues>
            1.3745766878128052e-01 -6.6234058141708374e-01</leafValues></_>
        <_>
          <internalNodes>
            0 -1 1 4.8898644745349884e-03</internalNodes>
          <leafValues>
            -1.9365060329437256e-01 3.9579796791076660e-01</leafValues></_>
        <_>
          <internalNodes>
            0 -1 77 1.2779606040567160e-03</internalNodes>
          <leafValues>
            1.1833214759826660e-01 -6.2858814001083374e-01</leafValues></_>
        <_>
          <internalNodes>
            0 -1 205 -1.3699031842406839e-04</internalNodes>
          <leafValues>
            -7.8328031301498413e-01 9.5169574022293091e-02</leafValues></_>
        <_>
          <internalNodes>
            0 -1 118 2.8079058974981308e-03</internalNodes>
          <leafValues>
            -2.2843290865421295e-01 2.9645422101020813e-01</leafValues></_>
        <_>
          <internalNodes>
            0 -1 177 3.6521148867905140e-03</internalNodes>
          <leafValues>
            -1.4739874005317688e-01 5.2224862575531006e-01</leafValues></_>
        <_>
          <internalNodes>
            0 -1 217 -4.6405105968005955e-04</internalNodes>
          <leafValues>
            -6.4417970180511475e-01 1.1954824626445770e-01</leafValues></_>
        <_>
          <internalNodes>
            0 -1 290 1.6976665938273072e-04</internalNodes>
          <leafValues>
            8.4269344806671143e-02 -6.6424429416656494e-01</leafValues></_>
        <_>
          <internalNodes>
            0 -1 115 5.0632548663998023e-05</internalNodes>
          <leafValues>
            -3.2371160387992859e-01 1.9524599611759186e-01</leafValues></_>
        <_>
          <internalNodes>
            0 -1 143 -2.1777887013740838e-04</internalNodes>
          <leafValues>
            -3.9267653226852417e-01 1.9214770197868347e-01</leafValues></_>
        <_>
          <internalNodes>
            0 -1 100 -9.4564085884485394e-05</internalNodes>
          <leafValues>
            -4.0808299183845520e-01 1.8983885645866394e-01</leafValues></_>
        <_>
          <internalNodes>
            0 -1 81 1.3180286623537540e-04</internalNodes>
          <leafValues>
            -3.5032373666763306e-01 2.0753531157970428e-01</leafValues></_>
        <_>
          <internalNodes>
            0 -1 144 3.9389431476593018e-03</internalNodes>
          <leafValues>
            -2.2085957229137421e-01 3.1127724051475525e-01</leafValues></_>
        <_>
          <internalNodes>
            0 -1 160 6.4019928686320782e-05</internalNodes>
          <leafValues>
            2.1625123918056488e-01 -3.1796482205390930e-01</leafValues></_></weakClassifiers></_>
    <!-- stage 5 -->
    <_>
      <maxWeakCount>20</maxWeakCount>
      <stageThreshold>-1.5457185506820679e+00</stageThreshold>
      <weakClassifiers>
        <_>
          <internalNodes>
            0 -1 178 -5.7055822253460065e-05</internalNodes>
          <leafValues>
            -6.6587395966053009e-02 -6.7374807596206665e-01</leafValues></_>
        <_>
          <internalNodes>
            0 -1 94 2.3265244089998305e-04</internalNodes>
          <leafValues>
            -3.9904645085334778e-01 2.1866145730018616e-01</leafValues></_>
        <_>
          <internalNodes>
            0 -1 286 9.1363012325018644e-04</internalNodes>
          <leafValues>
            -1.8455103039741516e-01 4.8490124940872192e-01</leafValues></_>
        <_>
          <internalNodes>
            0 -1 94 8.8581797899678349e-04</internalNodes>
          <leafValues>
            1.2042596936225891e-01 -7.5431120395660400e-01</leafValues></_>
        <_>
          <internalNodes>
            0 -1 277 -5.5573182180523872e-05</internalNodes>
          <leafValues>
            3.2245957851409912e-01 -2.2379720211029053e-01</leafValues></_>
        <_>
          <internalNodes>
            0 -1 40 2.2375004482455552e-04</internalNodes>
          <leafValues>
            -3.7170654535293579e-01 2.2565400600433350e-01</leafValues></_>
        <_>
          <internalNodes>
            0 -1 41 1.6362518072128296e-03</internalNodes>
          <leafValues>
            1.5489296615123749e-01 -6.6783910989761353e-01</leafValues></_>
        <_>
          <internalNodes>
            0 -1 296 -4.1054197936318815e-05</internalNodes>
          <leafValues>
            3.2866135239601135e-01 -2.2903840243816376e-01</leafValues></_>
        <_>
          <internalNodes>
            0 -1 240 -3.2710991217754781e-04</internalNodes>
          <leafValues>
            2.7662402391433716e-01 -3.1250488758087158e-01</leafValues></_>
        <_>
          <internalNodes>
            0 -1 56 -7.4301252607256174e-04</internalNodes>
          <leafValues>
            -4.6128782629966736e-01 1.5731909871101379e-01</leafValues></_>
        <_>
          <internalNodes>
            0 -1 184 -6.8234503269195557e-03</internalNodes>
          <leafValues>
            6.7197340726852417e-01 -1.5382809937000275e-01</leafValues></_>
        <_>
          <internalNodes>
            0 -1 134 2.5166040286421776e-02</internalNodes>
          <leafValues>
            -1.1358086019754410e-01 5.0713711977005005e-01</leafValues></_>
        <_>
          <internalNodes>
            0 -1 226 -1.9535582396201789e-05</internalNodes>
          <leafValues>
            2.1242104470729828e-01 -3.7521705031394958e-01</leafValues></_>
        <_>
          <internalNodes>
            0 -1 267 -7.1600364753976464e-04</internalNodes>
          <leafValues>
            3.2169085741043091e-01 -2.3855981230735779e-01</leafValues></_>
        <_>
          <internalNodes>
            0 -1 339 1.7716091824695468e-03</internalNodes>
          <leafValues>
            -1.6574554145336151e-01 4.3470421433448792e-01</leafValues></_>
        <_>
          <internalNodes>
            0 -1 145 -4.8223628255072981e-05</internalNodes>
          <leafValues>
            -4.8553916811943054e-01 1.5062603354454041e-01</leafValues></_>
        <_>
          <internalNodes>
            0 -1 151 3.6075703974347562e-05</internalNodes>
          <leafValues>
            -3.0532771348953247e-01 2.1853744983673096e-01</leafValues></_>
        <_>
          <internalNodes>
            0 -1 107 1.0012727580033243e-04</internalNodes>
          <leafValues>
            1.3770198822021484e-01 -5.1575404405593872e-01</leafValues></_>
        <_>
          <internalNodes>
            0 -1 299 -3.5708351060748100e-03</internalNodes>
          <leafValues>
            3.7225890159606934e-01 -1.9704881310462952e-01</leafValues></_>
        <_>
          <internalNodes>
            0 -1 206 -7.9912627115845680e-03</internalNodes>
          <leafValues>
            -8.2048714160919189e-01 8.2236543297767639e-02</leafValues></_></weakClassifiers></_>
    <!-- stage 6 -->
    <_>
      <maxWeakCount>16</maxWeakCount>
      <stageThreshold>-1.3697258234024048e+00</stageThreshold>
      <weakClassifiers>
        <_>
          <internalNodes>
            0 -1 51 2.7456562384031713e-04</internalNodes>
          <leafValues>
            -6.5371507406234741e-01 -2.6744944974780083e-02</leafValues></_>
        <_>
          <internalNodes>
            0 -1 315 5.1549384370446205e-03</internalNodes>
          <leafValues>
            -2.3433816432952881e-01 3.9809188246726990e-01</leafValues></_>
        <_>
          <internalNodes>
            0 -1 86 -1.5433121006935835e-05</internalNodes>
          <leafValues>
            -3.4262785315513611e-01 2.1497289836406708e-01</leafValues></_>
        <_>
          <internalNodes>
            0 -1 328 -9.1439054813235998e-04</internalNodes>
          <leafValues>
            4.4191753864288330e-01 -1.8701577186584473e-01</leafValues></_>
        <_>
          <internalNodes>
            0 -1 52 6.6398666240274906e-04</internalNodes>
          <leafValues>
            1.7629109323024750e-01 -5.4838067293167114e-01</leafValues></_>
        <_>
          <internalNodes>
            0 -1 174 -3.2249558717012405e-03</internalNodes>
          <leafValues>
            3.9166629314422607e-01 -1.9145274162292480e-01</leafValues></_>
        <_>
          <internalNodes>
            0 -1 98 -8.5169223893899471e-05</internalNodes>
          <leafValues>
            -3.4112277626991272e-01 2.0537465810775757e-01</leafValues></_>
        <_>
          <internalNodes>
            0 -1 71 2.1707627456635237e-04</internalNodes>
          <leafValues>
            -3.1476688385009766e-01 2.1680347621440887e-01</leafValues></_>
        <_>
          <internalNodes>
            0 -1 71 7.5426389230415225e-04</internalNodes>
          <leafValues>
            1.4953486621379852e-01 -5.8255130052566528e-01</leafValues></_>
        <_>
          <internalNodes>
            0 -1 139 -1.3078397023491561e-04</internalNodes>
          <leafValues>
            -3.7948966026306152e-01 1.7860288918018341e-01</leafValues></_>
        <_>
          <internalNodes>
            0 -1 211 8.9672335889190435e-05</internalNodes>
          <leafValues>
            1.7739072442054749e-01 -4.1938948631286621e-01</leafValues></_>
        <_>
          <internalNodes>
            0 -1 20 6.4842682331800461e-04</internalNodes>
          <leafValues>
            -3.0212250351905823e-01 2.4605602025985718e-01</leafValues></_>
        <_>
          <internalNodes>
            0 -1 37 5.1884964341297746e-04</internalNodes>
          <leafValues>
            8.5775896906852722e-02 -6.9339478015899658e-01</leafValues></_>
        <_>
          <internalNodes>
            0 -1 170 1.6082884394563735e-04</internalNodes>
          <leafValues>
            -3.0729946494102478e-01 2.2477309405803680e-01</leafValues></_>
        <_>
          <internalNodes>
            0 -1 271 -8.7036384502425790e-04</internalNodes>
          <leafValues>
            2.9117256402969360e-01 -2.3527304828166962e-01</leafValues></_>
        <_>
          <internalNodes>
            0 -1 331 -6.2514794990420341e-04</internalNodes>
          <leafValues>
            4.0467944741249084e-01 -1.6901616752147675e-01</leafValues></_></weakClassifiers></_>
    <!-- stage 7 -->
    <_>
      <maxWeakCount>23</maxWeakCount>
      <stageThreshold>-1.4717885255813599e+00</stageThreshold>
      <weakClassifiers>
        <_>
          <internalNodes>
            0 -1 163 -1.7424343968741596e-04</internalNodes>
          <leafValues>
            -7.1249999105930328e-02 -6.3285714387893677e-01</leafValues></_>
        <_>
          <internalNodes>
            0 -1 7 4.5759393833577633e-04</internalNodes>
          <leafValues>
            -2.1064133942127228e-01 3.8826841115951538e-01</leafValues></_>
        <_>
          <internalNodes>
            0 -1 275 -6.9546935264952481e-05</internalNodes>
          <leafValues>
            3.2013246417045593e-01 -2.0817302167415619e-01</leafValues></_>
        <_>
          <internalNodes>
            0 -1 257 -1.3645277358591557e-03</internalNodes>
          <leafValues>
            -7.5981211662292480e-01 7.6365895569324493e-02</leafValues></_>
        <_>
          <internalNodes>
            0 -1 336 -1.0979026556015015e-03</internalNodes>
          <leafValues>
            3.3082580566406250e-01 -1.8092721700668335e-01</leafValues></_>
        <_>
          <internalNodes>
            0 -1 126 3.9087983896024525e-04</internalNodes>
          <leafValues>
            -2.9265081882476807e-01 2.2202189266681671e-01</leafValues></_>
        <_>
          <internalNodes>
            0 -1 125 6.8197119981050491e-04</internalNodes>
          <leafValues>
            1.4849272370338440e-01 -5.5553352832794189e-01</leafValues></_>
        <_>
          <internalNodes>
            0 -1 202 -2.2207113943295553e-05</internalNodes>
          <leafValues>
            1.9011758267879486e-01 -3.0769681930541992e-01</leafValues></_>
        <_>
          <internalNodes>
            0 -1 6 -2.6605272432789207e-04</internalNodes>
          <leafValues>
            2.7775889635086060e-01 -2.2383216023445129e-01</leafValues></_>
        <_>
          <internalNodes>
            0 -1 146 1.2876925757154822e-03</internalNodes>
          <leafValues>
            7.9639300704002380e-02 -6.9719332456588745e-01</leafValues></_>
        <_>
          <internalNodes>
            0 -1 310 6.3770497217774391e-04</internalNodes>
          <leafValues>
            -2.3018895089626312e-01 2.8380239009857178e-01</leafValues></_>
        <_>
          <internalNodes>
            0 -1 330 1.7336793825961649e-04</internalNodes>
          <leafValues>
            9.9676974117755890e-02 -5.7646501064300537e-01</leafValues></_>
        <_>
          <internalNodes>
            0 -1 329 -6.8460515467450023e-04</internalNodes>
          <leafValues>
            3.2193073630332947e-01 -1.7720852792263031e-01</leafValues></_>
        <_>
          <internalNodes>
            0 -1 133 -3.2486968848388642e-05</internalNodes>
          <leafValues>
            -4.4971692562103271e-01 1.2790119647979736e-01</leafValues></_>
        <_>
          <internalNodes>
            0 -1 303 3.2738002482801676e-04</internalNodes>
          <leafValues>
            5.3319327533245087e-02 -9.2831361293792725e-01</leafValues></_>
        <_>
          <internalNodes>
            0 -1 237 2.0062411203980446e-04</internalNodes>
          <leafValues>
            5.9697441756725311e-02 -7.0440119504928589e-01</leafValues></_>
        <_>
          <internalNodes>
            0 -1 254 -6.4948742510750890e-04</internalNodes>
          <leafValues>
            2.8397926688194275e-01 -1.9452320039272308e-01</leafValues></_>
        <_>
          <internalNodes>
            0 -1 23 -1.3262849824968725e-04</internalNodes>
          <leafValues>
            -2.8022164106369019e-01 2.0663964748382568e-01</leafValues></_>
        <_>
          <internalNodes>
            0 -1 127 4.5481979846954346e-02</internalNodes>
          <leafValues>
            -1.1565673351287842e-01 7.3442339897155762e-01</leafValues></_>
        <_>
          <internalNodes>
            0 -1 122 1.8485475447960198e-04</internalNodes>
          <leafValues>
            -3.3519357442855835e-01 2.4134911596775055e-01</leafValues></_>
        <_>
          <internalNodes>
            0 -1 247 -6.7054317332804203e-04</internalNodes>
          <leafValues>
            2.9187378287315369e-01 -2.0225353538990021e-01</leafValues></_>
        <_>
          <internalNodes>
            0 -1 201 2.8063603676855564e-03</internalNodes>
          <leafValues>
            -1.5636213123798370e-01 3.9789244532585144e-01</leafValues></_>
        <_>
          <internalNodes>
            0 -1 64 1.5314773190766573e-03</internalNodes>
          <leafValues>
            7.6631687581539154e-02 -8.0975651741027832e-01</leafValues></_></weakClassifiers></_>
    <!-- stage 8 -->
    <_>
      <maxWeakCount>22</maxWeakCount>
      <stageThreshold>-1.4195061922073364e+00</stageThreshold>
      <weakClassifiers>
        <_>
          <internalNodes>
            0 -1 70 1.7316924640908837e-04</internalNodes>
          <leafValues>
            -7.0871984958648682e-01 -1.2278876453638077e-01</leafValues></_>
        <_>
          <internalNodes>
            0 -1 55 6.1214370361994952e-05</internalNodes>
          <leafValues>
            -2.7888220548629761e-01 2.3711627721786499e-01</leafValues></_>
        <_>
          <internalNodes>
            0 -1 88 -3.6360484955366701e-05</internalNodes>
          <leafValues>
            -4.5595028996467590e-01 1.5012016892433167e-01</leafValues></_>
        <_>
          <internalNodes>
            0 -1 228 6.8573781754821539e-04</internalNodes>
          <leafValues>
            -1.5378674864768982e-01 3.9740759134292603e-01</leafValues></_>
        <_>
          <internalNodes>
            0 -1 88 1.0736827243817970e-04</internalNodes>
          <leafValues>
            1.1451118439435959e-01 -5.1700180768966675e-01</leafValues></_>
        <_>
          <internalNodes>
            0 -1 241 -2.3371567949652672e-03</internalNodes>
          <leafValues>
            5.7940661907196045e-01 -9.3896113336086273e-02</leafValues></_>
        <_>
          <internalNodes>
            0 -1 229 -3.2163552532438189e-05</internalNodes>
          <leafValues>
            -4.5826849341392517e-01 1.3940836489200592e-01</leafValues></_>
        <_>
          <internalNodes>
            0 -1 222 -9.8785203590523452e-05</internalNodes>
          <leafValues>
            1.7477208375930786e-01 -3.3116364479064941e-01</leafValues></_>
        <_>
          <internalNodes>
            0 -1 189 -9.9481083452701569e-04</internalNodes>
          <leafValues>
            -5.5297565460205078e-01 1.2715856730937958e-01</leafValues></_>
        <_>
          <internalNodes>
            0 -1 260 5.5149989202618599e-03</internalNodes>
          <leafValues>
            -1.8197591602802277e-01 3.4040731191635132e-01</leafValues></_>
        <_>
          <internalNodes>
            0 -1 283 -1.2163293285993859e-04</internalNodes>
          <leafValues>
            3.5643216967582703e-01 -2.4857765436172485e-01</leafValues></_>
        <_>
          <internalNodes>
            0 -1 198 3.9723055670037866e-04</internalNodes>
          <leafValues>
            -1.5392746031284332e-01 3.5645219683647156e-01</leafValues></_>
        <_>
          <internalNodes>
            0 -1 65 1.2725862325169146e-04</internalNodes>
          <leafValues>
            -2.2660417854785919e-01 2.7357879281044006e-01</leafValues></_>
        <_>
          <internalNodes>
            0 -1 280 -1.7501425463706255e-04</internalNodes>
          <leafValues>
            -6.2630224227905273e-01 9.8246231675148010e-02</leafValues></_>
        <_>
          <internalNodes>
            0 -1 321 6.9174391683191061e-04</internalNodes>
          <leafValues>
            -2.2437700629234314e-01 2.7433559298515320e-01</leafValues></_>
        <_>
          <internalNodes>
            0 -1 270 -4.0831096703186631e-04</internalNodes>
          <leafValues>
            -7.3807770013809204e-01 8.7378889322280884e-02</leafValues></_>
        <_>
          <internalNodes>
            0 -1 318 -3.3484036102890968e-03</internalNodes>
          <leafValues>
            4.8529800772666931e-01 -1.3335373997688293e-01</leafValues></_>
        <_>
          <internalNodes>
            0 -1 29 2.9177358373999596e-03</internalNodes>
          <leafValues>
            9.5547810196876526e-02 -6.6942101716995239e-01</leafValues></_>
        <_>
          <internalNodes>
            0 -1 173 2.4922395823523402e-04</internalNodes>
          <leafValues>
            -2.6910749077796936e-01 2.2342573106288910e-01</leafValues></_>
        <_>
          <internalNodes>
            0 -1 325 4.8688758397474885e-04</internalNodes>
          <leafValues>
            1.0336889326572418e-01 -6.8422800302505493e-01</leafValues></_>
        <_>
          <internalNodes>
            0 -1 214 -6.0775026213377714e-05</internalNodes>
          <leafValues>
            1.7647771537303925e-01 -3.5610723495483398e-01</leafValues></_>
        <_>
          <internalNodes>
            0 -1 141 1.2840243289247155e-04</internalNodes>
          <leafValues>
            1.2006443738937378e-01 -4.6378231048583984e-01</leafValues></_></weakClassifiers></_>
    <!-- stage 9 -->
    <_>
      <maxWeakCount>26</maxWeakCount>
      <stageThreshold>-1.3235765695571899e+00</stageThreshold>
      <weakClassifiers>
        <_>
          <internalNodes>
            0 -1 76 2.2271086345426738e-04</internalNodes>
          <leafValues>
            -5.8379119634628296e-01 -9.7150258719921112e-02</leafValues></_>
        <_>
          <internalNodes>
            0 -1 17 1.4702387154102325e-02</internalNodes>
          <leafValues>
            -1.9505938887596130e-01 3.6403939127922058e-01</leafValues></_>
        <_>
          <internalNodes>
            0 -1 31 -4.6404253225773573e-04</internalNodes>
          <leafValues>
            -4.5459207892417908e-01 1.2357332557439804e-01</leafValues></_>
        <_>
          <internalNodes>
            0 -1 220 -7.7332777436822653e-05</internalNodes>
          <leafValues>
            2.0573563873767853e-01 -2.7401509881019592e-01</leafValues></_>
        <_>
          <internalNodes>
            0 -1 2 -2.0504917949438095e-02</internalNodes>
          <leafValues>
            6.9166398048400879e-01 -7.0422209799289703e-02</leafValues></_>
        <_>
          <internalNodes>
            0 -1 95 -1.0590296005830169e-04</internalNodes>
          <leafValues>
            -3.4476587176322937e-01 1.8560510873794556e-01</leafValues></_>
        <_>
          <internalNodes>
            0 -1 245 -3.4630638547241688e-03</internalNodes>
          <leafValues>
            6.5224218368530273e-01 -9.6339687705039978e-02</leafValues></_>
        <_>
          <internalNodes>
            0 -1 258 -1.6790964582469314e-04</internalNodes>
          <leafValues>
            2.4878552556037903e-01 -2.1010482311248779e-01</leafValues></_>
        <_>
          <internalNodes>
            0 -1 87 8.7470762082375586e-06</internalNodes>
          <leafValues>
            -2.6758271455764771e-01 1.9413289427757263e-01</leafValues></_>
        <_>
          <internalNodes>
            0 -1 243 -3.5674503305926919e-04</internalNodes>
          <leafValues>
            2.1008989214897156e-01 -2.6037156581878662e-01</leafValues></_>
        <_>
          <internalNodes>
            0 -1 26 5.7590653887018561e-04</internalNodes>
          <leafValues>
            1.1416552215814590e-01 -4.8654487729072571e-01</leafValues></_>
        <_>
          <internalNodes>
            0 -1 43 4.3766654562205076e-04</internalNodes>
          <leafValues>
            -2.1432952582836151e-01 2.8815266489982605e-01</leafValues></_>
        <_>
          <internalNodes>
            0 -1 212 -2.5073071010410786e-03</internalNodes>
          <leafValues>
            -4.6453914046287537e-01 1.3712234795093536e-01</leafValues></_>
        <_>
          <internalNodes>
            0 -1 14 3.1541122007183731e-04</internalNodes>
          <leafValues>
            -2.0049808919429779e-01 2.8360077738761902e-01</leafValues></_>
        <_>
          <internalNodes>
            0 -1 239 -4.1601026896387339e-04</internalNodes>
          <leafValues>
            2.0382215082645416e-01 -2.5607618689537048e-01</leafValues></_>
        <_>
          <internalNodes>
            0 -1 62 2.0457248319871724e-04</internalNodes>
          <leafValues>
            -2.9535800218582153e-01 1.9457216560840607e-01</leafValues></_>
        <_>
          <internalNodes>
            0 -1 90 1.0193625348620117e-04</internalNodes>
          <leafValues>
            9.7029268741607666e-02 -5.2051264047622681e-01</leafValues></_>
        <_>
          <internalNodes>
            0 -1 162 6.9282529875636101e-04</internalNodes>
          <leafValues>
            -2.3500856757164001e-01 2.3581030964851379e-01</leafValues></_>
        <_>
          <internalNodes>
            0 -1 294 -6.2464396469295025e-03</internalNodes>
          <leafValues>
            4.2493832111358643e-01 -1.3427765667438507e-01</leafValues></_>
        <_>
          <internalNodes>
            0 -1 298 2.3010415025055408e-03</internalNodes>
          <leafValues>
            -1.2685216963291168e-01 4.5762255787849426e-01</leafValues></_>
        <_>
          <internalNodes>
            0 -1 119 -1.0126571578439325e-04</internalNodes>
          <leafValues>
            -6.7571032047271729e-01 9.1081842780113220e-02</leafValues></_>
        <_>
          <internalNodes>
            0 -1 326 -8.9444234617985785e-05</internalNodes>
          <leafValues>
            2.7566385269165039e-01 -2.0111961662769318e-01</leafValues></_>
        <_>
          <internalNodes>
            0 -1 312 -2.3931555915623903e-04</internalNodes>
          <leafValues>
            3.5117775201797485e-01 -1.5506535768508911e-01</leafValues></_>
        <_>
          <internalNodes>
            0 -1 324 -2.4830078473314643e-04</internalNodes>
          <leafValues>
            -6.7987203598022461e-01 7.9003959894180298e-02</leafValues></_>
        <_>
          <internalNodes>
            0 -1 340 7.0256739854812622e-04</internalNodes>
          <leafValues>
            -1.6140303015708923e-01 3.3988055586814880e-01</leafValues></_>
        <_>
          <internalNodes>
            0 -1 142 5.1577348494902253e-04</internalNodes>
          <leafValues>
            -2.5559845566749573e-01 2.2958096861839294e-01</leafValues></_></weakClassifiers></_>
    <!-- stage 10 -->
    <_>
      <maxWeakCount>24</maxWeakCount>
      <stageThreshold>-1.3169206380844116e+00</stageThreshold>
      <weakClassifiers>
        <_>
          <internalNodes>
            0 -1 8 7.5277930591255426e-04</internalNodes>
          <leafValues>
            -4.6140795946121216e-01 1.3707165420055389e-01</leafValues></_>
        <_>
          <internalNodes>
            0 -1 75 8.5996725829318166e-05</internalNodes>
          <leafValues>
            1.4389631152153015e-01 -4.1847690939903259e-01</leafValues></_>
        <_>
          <internalNodes>
            0 -1 97 5.2837544353678823e-04</internalNodes>
          <leafValues>
            -2.7294489741325378e-01 1.9490763545036316e-01</leafValues></_>
        <_>
          <internalNodes>
            0 -1 136 -2.4561728350818157e-03</internalNodes>
          <leafValues>
            -4.5647531747817993e-01 1.5737742185592651e-01</leafValues></_>
        <_>
          <internalNodes>
            0 -1 338 -2.5874986313283443e-03</internalNodes>
          <leafValues>
            3.9953228831291199e-01 -1.5798458456993103e-01</leafValues></_>
        <_>
          <internalNodes>
            0 -1 234 -5.3289346396923065e-05</internalNodes>
          <leafValues>
            2.3543024063110352e-01 -2.2582563757896423e-01</leafValues></_>
        <_>
          <internalNodes>
            0 -1 304 -6.3938752282410860e-04</internalNodes>
          <leafValues>
            -8.3891671895980835e-01 6.8450532853603363e-02</leafValues></_>
        <_>
          <internalNodes>
            0 -1 278 -4.5360531657934189e-04</internalNodes>
          <leafValues>
            2.6568382978439331e-01 -1.8891111016273499e-01</leafValues></_>
        <_>
          <internalNodes>
            0 -1 150 -3.7501519545912743e-04</internalNodes>
          <leafValues>
            1.2555012106895447e-01 -3.5990402102470398e-01</leafValues></_>
        <_>
          <internalNodes>
            0 -1 194 -1.0617843363434076e-03</internalNodes>
          <leafValues>
            -3.1526398658752441e-01 1.9540600478649139e-01</leafValues></_>
        <_>
          <internalNodes>
            0 -1 225 -1.0878626257181168e-02</internalNodes>
          <leafValues>
            7.5118440389633179e-01 -8.5753470659255981e-02</leafValues></_>
        <_>
          <internalNodes>
            0 -1 297 2.6519031962379813e-04</internalNodes>
          <leafValues>
            8.6042396724224091e-02 -7.4375462532043457e-01</leafValues></_>
        <_>
          <internalNodes>
            0 -1 242 7.1631322498433292e-05</internalNodes>
          <leafValues>
            -2.3908786475658417e-01 1.9460466504096985e-01</leafValues></_>
        <_>
          <internalNodes>
            0 -1 221 5.9690028137993068e-06</internalNodes>
          <leafValues>
            -2.8245407342910767e-01 2.0661969482898712e-01</leafValues></_>
        <_>
          <internalNodes>
            0 -1 251 8.8195403805002570e-04</internalNodes>
          <leafValues>
            -1.6182240843772888e-01 3.7613463401794434e-01</leafValues></_>
        <_>
          <internalNodes>
            0 -1 192 -5.0017253670375794e-05</internalNodes>
          <leafValues>
            -3.0804395675659180e-01 1.7103740572929382e-01</leafValues></_>
        <_>
          <internalNodes>
            0 -1 111 4.3342624849174172e-05</internalNodes>
          <leafValues>
            -3.1456464529037476e-01 1.7154631018638611e-01</leafValues></_>
        <_>
          <internalNodes>
            0 -1 109 1.1131331557407975e-03</internalNodes>
          <leafValues>
            1.5150402486324310e-01 -4.4390940666198730e-01</leafValues></_>
        <_>
          <internalNodes>
            0 -1 167 1.1181099398527294e-04</internalNodes>
          <leafValues>
            -2.5039792060852051e-01 2.3983611166477203e-01</leafValues></_>
        <_>
          <internalNodes>
            0 -1 305 4.1238142875954509e-04</internalNodes>
          <leafValues>
            -1.5657728910446167e-01 3.0190625786781311e-01</leafValues></_>
        <_>
          <internalNodes>
            0 -1 252 1.7016138881444931e-03</internalNodes>
          <leafValues>
            -1.4661020040512085e-01 3.4054273366928101e-01</leafValues></_>
        <_>
          <internalNodes>
            0 -1 80 9.3084141553845257e-05</internalNodes>
          <leafValues>
            -3.2252895832061768e-01 1.6725835204124451e-01</leafValues></_>
        <_>
          <internalNodes>
            0 -1 82 1.9068915862590075e-03</internalNodes>
          <leafValues>
            1.4953836798667908e-01 -3.5093548893928528e-01</leafValues></_>
        <_>
          <internalNodes>
            0 -1 91 4.8293144209310412e-04</internalNodes>
          <leafValues>
            -2.8335636854171753e-01 1.9310517609119415e-01</leafValues></_></weakClassifiers></_>
    <!-- stage 11 -->
    <_>
      <maxWeakCount>24</maxWeakCount>
      <stageThreshold>-1.3255977630615234e+00</stageThreshold>
      <weakClassifiers>
        <_>
          <internalNodes>
            0 -1 190 7.9241064668167382e-05</internalNodes>
          <leafValues>
            -1.2644948065280914e-01 -6.4844405651092529e-01</leafValues></_>
        <_>
          <internalNodes>
            0 -1 66 2.0212921663187444e-04</internalNodes>
          <leafValues>
            -3.6315584182739258e-01 1.2189439684152603e-01</leafValues></_>
        <_>
          <internalNodes>
            0 -1 16 1.6981711611151695e-02</internalNodes>
          <leafValues>
            -9.3118481338024139e-02 6.3418573141098022e-01</leafValues></_>
        <_>
          <internalNodes>
            0 -1 114 5.9296994004398584e-04</internalNodes>
          <leafValues>
            1.3929685950279236e-01 -4.1054385900497437e-01</leafValues></_>
        <_>
          <internalNodes>
            0 -1 79 -1.2590873241424561e-01</internalNodes>
          <leafValues>
            -5.5281138420104980e-01 1.3160610198974609e-01</leafValues></_>
        <_>
          <internalNodes>
            0 -1 300 -1.7559682601131499e-04</internalNodes>
          <leafValues>
            -8.1093961000442505e-01 6.2068145722150803e-02</leafValues></_>
        <_>
          <internalNodes>
            0 -1 140 6.9606862962245941e-04</internalNodes>
          <leafValues>
            9.8197259008884430e-02 -4.9427467584609985e-01</leafValues></_>
        <_>
          <internalNodes>
            0 -1 223 -2.2453605197370052e-04</internalNodes>
          <leafValues>
            2.0269951224327087e-01 -3.0706572532653809e-01</leafValues></_>
        <_>
          <internalNodes>
            0 -1 131 1.1662949691526592e-04</internalNodes>
          <leafValues>
            -2.9575121402740479e-01 1.7902392148971558e-01</leafValues></_>
        <_>
          <internalNodes>
            0 -1 232 5.9393823146820068e-02</internalNodes>
          <leafValues>
            7.9736001789569855e-02 -6.7827159166336060e-01</leafValues></_>
        <_>
          <internalNodes>
            0 -1 175 3.7530972622334957e-03</internalNodes>
          <leafValues>
            -1.4691567420959473e-01 4.5210924744606018e-01</leafValues></_>
        <_>
          <internalNodes>
            0 -1 191 -1.1461044196039438e-03</internalNodes>
          <leafValues>
            -5.7707411050796509e-01 1.0687615722417831e-01</leafValues></_>
        <_>
          <internalNodes>
            0 -1 238 3.2280893065035343e-03</internalNodes>
          <leafValues>
            -1.8182986974716187e-01 3.2016444206237793e-01</leafValues></_>
        <_>
          <internalNodes>
            0 -1 44 1.3634635251946747e-04</internalNodes>
          <leafValues>
            -3.3410468697547913e-01 1.8241383135318756e-01</leafValues></_>
        <_>
          <internalNodes>
            0 -1 25 7.9796928912401199e-04</internalNodes>
          <leafValues>
            1.0901487618684769e-01 -5.2314215898513794e-01</leafValues></_>
        <_>
          <internalNodes>
            0 -1 59 -2.1312634635251015e-04</internalNodes>
          <leafValues>
            3.3602279424667358e-01 -1.6935250163078308e-01</leafValues></_>
        <_>
          <internalNodes>
            0 -1 288 1.9526087271515280e-04</internalNodes>
          <leafValues>
            7.0317350327968597e-02 -7.8084331750869751e-01</leafValues></_>
        <_>
          <internalNodes>
            0 -1 10 -3.3378507941961288e-03</internalNodes>
          <leafValues>
            -4.8347774147987366e-01 9.5124438405036926e-02</leafValues></_>
        <_>
          <internalNodes>
            0 -1 197 4.1268602944910526e-04</internalNodes>
          <leafValues>
            -2.0199324190616608e-01 2.5400128960609436e-01</leafValues></_>
        <_>
          <internalNodes>
            0 -1 138 1.9295874517410994e-04</internalNodes>
          <leafValues>
            -3.0405697226524353e-01 1.6179864108562469e-01</leafValues></_>
        <_>
          <internalNodes>
            0 -1 203 -8.7900310754776001e-03</internalNodes>
          <leafValues>
            4.8723283410072327e-01 -1.0029699653387070e-01</leafValues></_>
        <_>
          <internalNodes>
            0 -1 49 -1.1116015230072662e-04</internalNodes>
          <leafValues>
            -3.0251884460449219e-01 2.1560657024383545e-01</leafValues></_>
        <_>
          <internalNodes>
            0 -1 322 2.1980813471600413e-04</internalNodes>
          <leafValues>
            7.5658239424228668e-02 -6.3213604688644409e-01</leafValues></_>
        <_>
          <internalNodes>
            0 -1 302 3.9732188452035189e-04</internalNodes>
          <leafValues>
            4.7367922961711884e-02 -8.7284326553344727e-01</leafValues></_></weakClassifiers></_>
    <!-- stage 12 -->
    <_>
      <maxWeakCount>25</maxWeakCount>
      <stageThreshold>-1.3241039514541626e+00</stageThreshold>
      <weakClassifiers>
        <_>
          <internalNodes>
            0 -1 12 1.5642417129129171e-03</internalNodes>
          <leafValues>
            -5.3344035148620605e-01 -2.6525198481976986e-03</leafValues></_>
        <_>
          <internalNodes>
            0 -1 116 2.5459710741415620e-04</internalNodes>
          <leafValues>
            -4.0754267573356628e-01 1.5450344979763031e-01</leafValues></_>
        <_>
          <internalNodes>
            0 -1 235 -4.5163184404373169e-03</internalNodes>
          <leafValues>
            2.1988449990749359e-01 -2.5371673703193665e-01</leafValues></_>
        <_>
          <internalNodes>
            0 -1 168 -3.8309655792545527e-05</internalNodes>
          <leafValues>
            -3.3103021979331970e-01 1.8970835208892822e-01</leafValues></_>
        <_>
          <internalNodes>
            0 -1 216 -1.4032468199729919e-02</internalNodes>
          <leafValues>
            4.5179945230484009e-01 -1.4165645837783813e-01</leafValues></_>
        <_>
          <internalNodes>
            0 -1 256 -1.9448625971563160e-04</internalNodes>
          <leafValues>
            -5.5481040477752686e-01 1.2072664499282837e-01</leafValues></_>
        <_>
          <internalNodes>
            0 -1 36 2.3264517076313496e-03</internalNodes>
          <leafValues>
            7.4831068515777588e-02 -5.5459415912628174e-01</leafValues></_>
        <_>
          <internalNodes>
            0 -1 313 7.3439092375338078e-04</internalNodes>
          <leafValues>
            -2.2143340110778809e-01 2.3368684947490692e-01</leafValues></_>
        <_>
          <internalNodes>
            0 -1 13 -4.9268207512795925e-03</internalNodes>
          <leafValues>
            4.6550962328910828e-01 -1.1129247397184372e-01</leafValues></_>
        <_>
          <internalNodes>
            0 -1 57 5.2132550626993179e-04</internalNodes>
          <leafValues>
            -1.6434188187122345e-01 3.0642017722129822e-01</leafValues></_>
        <_>
          <internalNodes>
            0 -1 53 7.2667625499889255e-04</internalNodes>
          <leafValues>
            1.0082149505615234e-01 -5.6200516223907471e-01</leafValues></_>
        <_>
          <internalNodes>
            0 -1 263 -2.6122108101844788e-04</internalNodes>
          <leafValues>
            -6.5686213970184326e-01 6.0843758285045624e-02</leafValues></_>
        <_>
          <internalNodes>
            0 -1 255 5.0985489040613174e-02</internalNodes>
          <leafValues>
            5.2837107330560684e-02 -8.3711612224578857e-01</leafValues></_>
        <_>
          <internalNodes>
            0 -1 161 2.4294853574247099e-05</internalNodes>
          <leafValues>
            1.8520514667034149e-01 -2.7379235625267029e-01</leafValues></_>
        <_>
          <internalNodes>
            0 -1 84 5.1333085139049217e-05</internalNodes>
          <leafValues>
            -3.0578741431236267e-01 1.8075601756572723e-01</leafValues></_>
        <_>
          <internalNodes>
            0 -1 193 1.3770852820016444e-04</internalNodes>
          <leafValues>
            1.0823174566030502e-01 -5.1138323545455933e-01</leafValues></_>
        <_>
          <internalNodes>
            0 -1 249 5.1344046369194984e-04</internalNodes>
          <leafValues>
            -2.0215602219104767e-01 2.4513378739356995e-01</leafValues></_>
        <_>
          <internalNodes>
            0 -1 128 2.6144942268729210e-02</internalNodes>
          <leafValues>
            1.5039935708045959e-01 -3.6332157254219055e-01</leafValues></_>
        <_>
          <internalNodes>
            0 -1 3 -3.1710762414149940e-04</internalNodes>
          <leafValues>
            3.4799697995185852e-01 -1.5124389529228210e-01</leafValues></_>
        <_>
          <internalNodes>
            0 -1 244 -3.0575380660593510e-03</internalNodes>
          <leafValues>
            -7.3709142208099365e-01 7.3645778000354767e-02</leafValues></_>
        <_>
          <internalNodes>
            0 -1 248 3.2861786894500256e-03</internalNodes>
          <leafValues>
            -1.6547395288944244e-01 3.1201121211051941e-01</leafValues></_>
        <_>
          <internalNodes>
            0 -1 292 -9.3814090359956026e-04</internalNodes>
          <leafValues>
            3.3884134888648987e-01 -1.6104446351528168e-01</leafValues></_>
        <_>
          <internalNodes>
            0 -1 169 5.7351212017238140e-03</internalNodes>
          <leafValues>
            -1.2780085206031799e-01 3.9706337451934814e-01</leafValues></_>
        <_>
          <internalNodes>
            0 -1 123 5.2472743846010417e-05</internalNodes>
          <leafValues>
            1.8732993304729462e-01 -3.3284622430801392e-01</leafValues></_>
        <_>
          <internalNodes>
            0 -1 165 -8.0411111412104219e-05</internalNodes>
          <leafValues>
            -3.8942155241966248e-01 1.4731305837631226e-01</leafValues></_></weakClassifiers></_>
    <!-- stage 13 -->
    <_>
      <maxWeakCount>28</maxWeakCount>
      <stageThreshold>-1.3817934989929199e+00</stageThreshold>
      <weakClassifiers>
        <_>
          <internalNodes>
            0 -1 199 1.1459577362984419e-03</internalNodes>
          <leafValues>
            -5.2797782421112061e-01 -3.9330542087554932e-02</leafValues></_>
        <_>
          <internalNodes>
            0 -1 301 -5.8210978750139475e-04</internalNodes>
          <leafValues>
            2.7105268836021423e-01 -2.0170666277408600e-01</leafValues></_>
        <_>
          <internalNodes>
            0 -1 72 4.6584394294768572e-04</internalNodes>
          <leafValues>
            -2.8211948275566101e-01 1.8639816343784332e-01</leafValues></_>
        <_>
          <internalNodes>
            0 -1 73 6.5486109815537930e-04</internalNodes>
          <leafValues>
            9.7962662577629089e-02 -5.3325098752975464e-01</leafValues></_>
        <_>
          <internalNodes>
            0 -1 333 -1.7462746473029256e-03</internalNodes>
          <leafValues>
            3.8928449153900146e-01 -1.1435080319643021e-01</leafValues></_>
        <_>
          <internalNodes>
            0 -1 266 7.3056886321865022e-05</internalNodes>
          <leafValues>
            -2.0162296295166016e-01 2.6038628816604614e-01</leafValues></_>
        <_>
          <internalNodes>
            0 -1 176 -2.8975244276807643e-05</internalNodes>
          <leafValues>
            2.6192170381546021e-01 -1.9832041859626770e-01</leafValues></_>
        <_>
          <internalNodes>
            0 -1 250 -3.8627255707979202e-03</internalNodes>
          <leafValues>
            -5.9493511915206909e-01 8.3898000419139862e-02</leafValues></_>
        <_>
          <internalNodes>
            0 -1 262 6.0141845606267452e-03</internalNodes>
          <leafValues>
            8.0851510167121887e-02 -6.7489838600158691e-01</leafValues></_>
        <_>
          <internalNodes>
            0 -1 33 9.8741296678781509e-03</internalNodes>
          <leafValues>
            -1.1038835346698761e-01 5.5889862775802612e-01</leafValues></_>
        <_>
          <internalNodes>
            0 -1 227 -4.2535131797194481e-05</internalNodes>
          <leafValues>
            -4.5887792110443115e-01 1.1910657584667206e-01</leafValues></_>
        <_>
          <internalNodes>
            0 -1 195 -1.3289240002632141e-01</internalNodes>
          <leafValues>
            -5.0711631774902344e-01 9.0774320065975189e-02</leafValues></_>
        <_>
          <internalNodes>
            0 -1 281 -2.7404206339269876e-03</internalNodes>
          <leafValues>
            -6.1503046751022339e-01 7.4876964092254639e-02</leafValues></_>
        <_>
          <internalNodes>
            0 -1 233 1.9959150813519955e-03</internalNodes>
          <leafValues>
            -1.3270458579063416e-01 3.6234933137893677e-01</leafValues></_>
        <_>
          <internalNodes>
            0 -1 264 -2.1464256569743156e-03</internalNodes>
          <leafValues>
            -7.5209420919418335e-01 6.6849686205387115e-02</leafValues></_>
        <_>
          <internalNodes>
            0 -1 179 1.2310752645134926e-03</internalNodes>
          <leafValues>
            -1.7252427339553833e-01 3.1012332439422607e-01</leafValues></_>
        <_>
          <internalNodes>
            0 -1 246 2.2450911346822977e-03</internalNodes>
          <leafValues>
            -1.4771725237369537e-01 3.7931767106056213e-01</leafValues></_>
        <_>
          <internalNodes>
            0 -1 287 2.1982109174132347e-03</internalNodes>
          <leafValues>
            6.7432075738906860e-02 -8.3461856842041016e-01</leafValues></_>
        <_>
          <internalNodes>
            0 -1 272 -7.6536810956895351e-04</internalNodes>
          <leafValues>
            2.5954055786132813e-01 -1.8502573668956757e-01</leafValues></_>
        <_>
          <internalNodes>
            0 -1 289 1.0950968135148287e-04</internalNodes>
          <leafValues>
            -2.0739327371120453e-01 2.4881853163242340e-01</leafValues></_>
        <_>
          <internalNodes>
            0 -1 24 5.8531342074275017e-04</internalNodes>
          <leafValues>
            6.9235429167747498e-02 -6.8314933776855469e-01</leafValues></_>
        <_>
          <internalNodes>
            0 -1 39 2.9173528309911489e-04</internalNodes>
          <leafValues>
            -2.2883826494216919e-01 2.8901267051696777e-01</leafValues></_>
        <_>
          <internalNodes>
            0 -1 317 -2.0183928427286446e-04</internalNodes>
          <leafValues>
            -5.5137681961059570e-01 8.5013218224048615e-02</leafValues></_>
        <_>
          <internalNodes>
            0 -1 34 -1.4996225945651531e-03</internalNodes>
          <leafValues>
            4.5898616313934326e-01 -1.0148669034242630e-01</leafValues></_>
        <_>
          <internalNodes>
            0 -1 120 1.9463335047475994e-04</internalNodes>
          <leafValues>
            -2.9504838585853577e-01 1.5864779055118561e-01</leafValues></_>
        <_>
          <internalNodes>
            0 -1 121 1.2180232442915440e-03</internalNodes>
          <leafValues>
            1.2738066911697388e-01 -4.7976258397102356e-01</leafValues></_>
        <_>
          <internalNodes>
            0 -1 61 3.1261726689990610e-05</internalNodes>
          <leafValues>
            -2.4079005420207977e-01 1.9379749894142151e-01</leafValues></_>
        <_>
          <internalNodes>
            0 -1 159 2.6852441951632500e-03</internalNodes>
          <leafValues>
            -1.4338012039661407e-01 3.4172955155372620e-01</leafValues></_></weakClassifiers></_>
    <!-- stage 14 -->
    <_>
      <maxWeakCount>28</maxWeakCount>
      <stageThreshold>-1.2758562564849854e+00</stageThreshold>
      <weakClassifiers>
        <_>
          <internalNodes>
            0 -1 188 -2.2189939045347273e-04</internalNodes>
          <leafValues>
            -1.4466130733489990e-01 -5.9459459781646729e-01</leafValues></_>
        <_>
          <internalNodes>
            0 -1 47 1.9041525956708938e-04</internalNodes>
          <leafValues>
            -2.7249944210052490e-01 1.6986222565174103e-01</leafValues></_>
        <_>
          <internalNodes>
            0 -1 259 -6.2607787549495697e-04</internalNodes>
          <leafValues>
            2.3312543332576752e-01 -2.2250773012638092e-01</leafValues></_>
        <_>
          <internalNodes>
            0 -1 22 2.3055109195411205e-03</internalNodes>
          <leafValues>
            1.6162866353988647e-01 -4.7291609644889832e-01</leafValues></_>
        <_>
          <internalNodes>
            0 -1 293 1.7059265519492328e-04</internalNodes>
          <leafValues>
            -2.1060323715209961e-01 2.5000762939453125e-01</leafValues></_>
        <_>
          <internalNodes>
            0 -1 103 6.8533564917743206e-03</internalNodes>
          <leafValues>
            -9.7147807478904724e-02 4.1902548074722290e-01</leafValues></_>
        <_>
          <internalNodes>
            0 -1 93 2.0656309061450884e-05</internalNodes>
          <leafValues>
            1.3007564842700958e-01 -3.6610099673271179e-01</leafValues></_>
        <_>
          <internalNodes>
            0 -1 15 2.4974264204502106e-02</internalNodes>
          <leafValues>
            -7.9374164342880249e-02 7.0827138423919678e-01</leafValues></_>
        <_>
          <internalNodes>
            0 -1 274 1.0782091412693262e-03</internalNodes>
          <leafValues>
            1.0683684796094894e-01 -4.8889383673667908e-01</leafValues></_>
        <_>
          <internalNodes>
            0 -1 279 -5.9196294751018286e-04</internalNodes>
          <leafValues>
            2.8544694185256958e-01 -2.0987550914287567e-01</leafValues></_>
        <_>
          <internalNodes>
            0 -1 282 -1.6716326354071498e-04</internalNodes>
          <leafValues>
            3.4407779574394226e-01 -1.4385262131690979e-01</leafValues></_>
        <_>
          <internalNodes>
            0 -1 268 5.7295628357678652e-04</internalNodes>
          <leafValues>
            -2.0692498981952667e-01 2.4176681041717529e-01</leafValues></_>
        <_>
          <internalNodes>
            0 -1 129 -1.4777659089304507e-05</internalNodes>
          <leafValues>
            -3.4670653939247131e-01 1.5757380425930023e-01</leafValues></_>
        <_>
          <internalNodes>
            0 -1 172 2.3405268439091742e-04</internalNodes>
          <leafValues>
            -2.4392302334308624e-01 1.9754765927791595e-01</leafValues></_>
        <_>
          <internalNodes>
            0 -1 171 1.8319671507924795e-03</internalNodes>
          <leafValues>
            1.4786198735237122e-01 -4.8244798183441162e-01</leafValues></_>
        <_>
          <internalNodes>
            0 -1 334 -3.8261746522039175e-04</internalNodes>
          <leafValues>
            2.9695045948028564e-01 -1.8735954165458679e-01</leafValues></_>
        <_>
          <internalNodes>
            0 -1 0 1.2689733505249023e-01</internalNodes>
          <leafValues>
            7.2219423949718475e-02 -7.3786270618438721e-01</leafValues></_>
        <_>
          <internalNodes>
            0 -1 335 -1.4159703277982771e-04</internalNodes>
          <leafValues>
            -5.3965806961059570e-01 7.0976138114929199e-02</leafValues></_>
        <_>
          <internalNodes>
            0 -1 323 -9.1948441695421934e-04</internalNodes>
          <leafValues>
            -6.4066553115844727e-01 7.2074063122272491e-02</leafValues></_>
        <_>
          <internalNodes>
            0 -1 156 -2.4082526564598083e-02</internalNodes>
          <leafValues>
            -5.2143985033035278e-01 8.7645813822746277e-02</leafValues></_>
        <_>
          <internalNodes>
            0 -1 253 -3.3727206755429506e-05</internalNodes>
          <leafValues>
            2.5229239463806152e-01 -1.9711624085903168e-01</leafValues></_>
        <_>
          <internalNodes>
            0 -1 205 2.0371170830912888e-04</internalNodes>
          <leafValues>
            7.5673177838325500e-02 -7.1870666742324829e-01</leafValues></_>
        <_>
          <internalNodes>
            0 -1 18 1.5749997692182660e-04</internalNodes>
          <leafValues>
            -1.9939273595809937e-01 2.6960304379463196e-01</leafValues></_>
        <_>
          <internalNodes>
            0 -1 204 -1.2571553816087544e-04</internalNodes>
          <leafValues>
            -6.4330750703811646e-01 8.2008972764015198e-02</leafValues></_>
        <_>
          <internalNodes>
            0 -1 35 -1.5315407654270530e-04</internalNodes>
          <leafValues>
            3.5412633419036865e-01 -1.5537108480930328e-01</leafValues></_>
        <_>
          <internalNodes>
            0 -1 32 2.1974479022901505e-04</internalNodes>
          <leafValues>
            1.3323560357093811e-01 -3.5882970690727234e-01</leafValues></_>
        <_>
          <internalNodes>
            0 -1 180 -4.6945400536060333e-03</internalNodes>
          <leafValues>
            5.3881156444549561e-01 -1.1193807423114777e-01</leafValues></_>
        <_>
          <internalNodes>
            0 -1 50 -2.2761410946259275e-05</internalNodes>
          <leafValues>
            -3.1985580921173096e-01 2.0222960412502289e-01</leafValues></_></weakClassifiers></_>
    <!-- stage 15 -->
    <_>
      <maxWeakCount>25</maxWeakCount>
      <stageThreshold>-1.3811255693435669e+00</stageThreshold>
      <weakClassifiers>
        <_>
          <internalNodes>
            0 -1 9 1.0768494103103876e-03</internalNodes>
          <leafValues>
            -4.3880361318588257e-01 2.5054466724395752e-01</leafValues></_>
        <_>
          <internalNodes>
            0 -1 54 5.5537457228638232e-05</internalNodes>
          <leafValues>
            1.8078675866127014e-01 -3.5135969519615173e-01</leafValues></_>
        <_>
          <internalNodes>
            0 -1 42 3.4168502315878868e-03</internalNodes>
          <leafValues>
            -2.6120603084564209e-01 2.7701675891876221e-01</leafValues></_>
        <_>
          <internalNodes>
            0 -1 105 1.0270453058183193e-03</internalNodes>
          <leafValues>
            -3.1843060255050659e-01 1.8454624712467194e-01</leafValues></_>
        <_>
          <internalNodes>
            0 -1 106 1.6451979172416031e-04</internalNodes>
          <leafValues>
            1.6485647857189178e-01 -3.4299221634864807e-01</leafValues></_>
        <_>
          <internalNodes>
            0 -1 158 -5.4939007386565208e-03</internalNodes>
          <leafValues>
            4.5840799808502197e-01 -1.0152163356542587e-01</leafValues></_>
        <_>
          <internalNodes>
            0 -1 21 4.5037013478577137e-05</internalNodes>
          <leafValues>
            -3.0932733416557312e-01 2.0237332582473755e-01</leafValues></_>
        <_>
          <internalNodes>
            0 -1 311 -9.3851541168987751e-04</internalNodes>
          <leafValues>
            4.0234786272048950e-01 -1.6814346611499786e-01</leafValues></_>
        <_>
          <internalNodes>
            0 -1 104 1.2144411448389292e-03</internalNodes>
          <leafValues>
            1.2258356064558029e-01 -5.8958375453948975e-01</leafValues></_>
        <_>
          <internalNodes>
            0 -1 153 4.7154157073237002e-04</internalNodes>
          <leafValues>
            -2.9421907663345337e-01 2.1025390923023224e-01</leafValues></_>
        <_>
          <internalNodes>
            0 -1 152 1.7836962360888720e-03</internalNodes>
          <leafValues>
            1.6822806000709534e-01 -5.1027339696884155e-01</leafValues></_>
        <_>
          <internalNodes>
            0 -1 115 3.9975137042347342e-05</internalNodes>
          <leafValues>
            -4.4474136829376221e-01 1.3876637816429138e-01</leafValues></_>
        <_>
          <internalNodes>
            0 -1 58 -1.5720450319349766e-03</internalNodes>
          <leafValues>
            2.5530883669853210e-01 -2.3093624413013458e-01</leafValues></_>
        <_>
          <internalNodes>
            0 -1 19 1.0082967579364777e-02</internalNodes>
          <leafValues>
            -1.0335010290145874e-01 5.4464215040206909e-01</leafValues></_>
        <_>
          <internalNodes>
            0 -1 341 -8.5478939581662416e-04</internalNodes>
          <leafValues>
            4.4301080703735352e-01 -1.3986589014530182e-01</leafValues></_>
        <_>
          <internalNodes>
            0 -1 154 -9.5815674285404384e-05</internalNodes>
          <leafValues>
            3.8820981979370117e-01 -1.7356337606906891e-01</leafValues></_>
        <_>
          <internalNodes>
            0 -1 147 2.1553791157202795e-05</internalNodes>
          <leafValues>
            1.8994534015655518e-01 -3.1672343611717224e-01</leafValues></_>
        <_>
          <internalNodes>
            0 -1 78 1.9508870318531990e-03</internalNodes>
          <leafValues>
            1.1173684149980545e-01 -5.9716719388961792e-01</leafValues></_>
        <_>
          <internalNodes>
            0 -1 213 -5.0733018724713475e-05</internalNodes>
          <leafValues>
            -4.0558072924613953e-01 1.4141939580440521e-01</leafValues></_>
        <_>
          <internalNodes>
            0 -1 137 -6.3216499984264374e-04</internalNodes>
          <leafValues>
            1.8327538669109344e-01 -3.1080782413482666e-01</leafValues></_>
        <_>
          <internalNodes>
            0 -1 101 1.5746291028335690e-03</internalNodes>
          <leafValues>
            -2.8353685140609741e-01 2.4099212884902954e-01</leafValues></_>
        <_>
          <internalNodes>
            0 -1 108 1.7484199488535523e-03</internalNodes>
          <leafValues>
            -9.6708908677101135e-02 7.0703202486038208e-01</leafValues></_>
        <_>
          <internalNodes>
            0 -1 269 -1.5461845032405108e-04</internalNodes>
          <leafValues>
            -5.7524812221527100e-01 1.1989627778530121e-01</leafValues></_>
        <_>
          <internalNodes>
            0 -1 308 -1.6027851961553097e-03</internalNodes>
          <leafValues>
            4.2627397179603577e-01 -1.4843045175075531e-01</leafValues></_>
        <_>
          <internalNodes>
            0 -1 337 1.4068078598938882e-04</internalNodes>
          <leafValues>
            1.1679882556200027e-01 -4.8937153816223145e-01</leafValues></_></weakClassifiers></_>
    <!-- stage 16 -->
    <_>
      <maxWeakCount>23</maxWeakCount>
      <stageThreshold>-1.3158928155899048e+00</stageThreshold>
      <weakClassifiers>
        <_>
          <internalNodes>
            0 -1 30 3.3023025025613606e-04</internalNodes>
          <leafValues>
            -6.0262292623519897e-01 -5.4915253072977066e-02</leafValues></_>
        <_>
          <internalNodes>
            0 -1 164 -3.2537845982005820e-05</internalNodes>
          <leafValues>
            -3.4527981281280518e-01 1.5628248453140259e-01</leafValues></_>
        <_>
          <internalNodes>
            0 -1 261 -2.1542173635680228e-04</internalNodes>
          <leafValues>
            3.5640534758567810e-01 -1.8684661388397217e-01</leafValues></_>
        <_>
          <internalNodes>
            0 -1 342 -3.4653121838346124e-04</internalNodes>
          <leafValues>
            3.4228381514549255e-01 -1.7981569468975067e-01</leafValues></_>
        <_>
          <internalNodes>
            0 -1 291 -3.3743539825081825e-04</internalNodes>
          <leafValues>
            -2.5731199979782104e-01 2.7832025289535522e-01</leafValues></_>
        <_>
          <internalNodes>
            0 -1 186 1.3971808948554099e-04</internalNodes>
          <leafValues>
            -2.2942812740802765e-01 3.3230945467948914e-01</leafValues></_>
        <_>
          <internalNodes>
            0 -1 182 -1.6709916963009164e-05</internalNodes>
          <leafValues>
            3.9652070403099060e-01 -2.3857580125331879e-01</leafValues></_>
        <_>
          <internalNodes>
            0 -1 166 -6.0821683291578665e-05</internalNodes>
          <leafValues>
            -3.6872133612632751e-01 1.7852579057216644e-01</leafValues></_>
        <_>
          <internalNodes>
            0 -1 181 -8.6101200431585312e-03</internalNodes>
          <leafValues>
            4.4788157939910889e-01 -1.7056480050086975e-01</leafValues></_>
        <_>
          <internalNodes>
            0 -1 306 -2.7892432990483940e-04</internalNodes>
          <leafValues>
            -6.8088072538375854e-01 1.1832373589277267e-01</leafValues></_>
        <_>
          <internalNodes>
            0 -1 327 -1.6599873779341578e-03</internalNodes>
          <leafValues>
            4.7482284903526306e-01 -1.8138776719570160e-01</leafValues></_>
        <_>
          <internalNodes>
            0 -1 155 8.2853139610961080e-04</internalNodes>
          <leafValues>
            -1.3915237784385681e-01 5.2126055955886841e-01</leafValues></_>
        <_>
          <internalNodes>
            0 -1 224 -3.2718372531235218e-03</internalNodes>
          <leafValues>
            -5.8218550682067871e-01 1.4099091291427612e-01</leafValues></_>
        <_>
          <internalNodes>
            0 -1 332 -4.4857757166028023e-03</internalNodes>
          <leafValues>
            -8.1917721033096313e-01 8.2550346851348877e-02</leafValues></_>
        <_>
          <internalNodes>
            0 -1 319 -1.9374517723917961e-03</internalNodes>
          <leafValues>
            5.5720263719558716e-01 -1.5184774994850159e-01</leafValues></_>
        <_>
          <internalNodes>
            0 -1 74 4.3751994962804019e-04</internalNodes>
          <leafValues>
            -2.8875926136970520e-01 2.7338677644729614e-01</leafValues></_>
        <_>
          <internalNodes>
            0 -1 4 -1.2433316442184150e-04</internalNodes>
          <leafValues>
            3.2202696800231934e-01 -2.7321854233741760e-01</leafValues></_>
        <_>
          <internalNodes>
            0 -1 307 2.2571982117369771e-04</internalNodes>
          <leafValues>
            1.0641890019178391e-01 -7.4627453088760376e-01</leafValues></_>
        <_>
          <internalNodes>
            0 -1 187 4.2708888940978795e-05</internalNodes>
          <leafValues>
            -3.6799889802932739e-01 2.1892040967941284e-01</leafValues></_>
        <_>
          <internalNodes>
            0 -1 265 1.9968708511441946e-03</internalNodes>
          <leafValues>
            -1.2208812683820724e-01 6.3788819313049316e-01</leafValues></_>
        <_>
          <internalNodes>
            0 -1 276 -1.5261737280525267e-04</internalNodes>
          <leafValues>
            3.3855050802230835e-01 -2.2834052145481110e-01</leafValues></_>
        <_>
          <internalNodes>
            0 -1 309 -2.1124648628756404e-04</internalNodes>
          <leafValues>
            -4.7868058085441589e-01 1.6992892324924469e-01</leafValues></_>
        <_>
          <internalNodes>
            0 -1 132 6.9884037657175213e-05</internalNodes>
          <leafValues>
            2.2987431287765503e-01 -3.3160620927810669e-01</leafValues></_></weakClassifiers></_></stages>
  <features>
    <_>
      <rects>
        <_>
          0 12 36 20 -1.</_>
        <_>
          0 22 36 10 2.</_></rects>
      <tilted>0</tilted></_>
    <_>
      <rects>
        <_>
          0 21 6 10 -1.</_>
        <_>
          3 21 3 10 2.</_></rects>
      <tilted>0</tilted></_>
    <_>
      <rects>
        <_>
          0 21 16 14 -1.</_>
        <_>
          0 21 8 7 2.</_>
        <_>
          8 28 8 7 2.</_></rects>
      <tilted>0</tilted></_>
    <_>
      <rects>
        <_>
          0 24 2 4 -1.</_>
        <_>
          1 24 1 4 2.</_></rects>
      <tilted>0</tilted></_>
    <_>
      <rects>
        <_>
          1 21 3 3 -1.</_>
        <_>
          2 21 1 3 3.</_></rects>
      <tilted>0</tilted></_>
    <_>
      <rects>
        <_>
          1 22 3 3 -1.</_>
        <_>
          2 22 1 3 3.</_></rects>
      <tilted>0</tilted></_>
    <_>
      <rects>
        <_>
          1 22 3 7 -1.</_>
        <_>
          2 22 1 7 3.</_></rects>
      <tilted>0</tilted></_>
    <_>
      <rects>
        <_>
          1 24 2 4 -1.</_>
        <_>
          2 24 1 4 2.</_></rects>
      <tilted>0</tilted></_>
    <_>
      <rects>
        <_>
          1 26 2 5 -1.</_>
        <_>
          2 26 1 5 2.</_></rects>
      <tilted>0</tilted></_>
    <_>
      <rects>
        <_>
          1 27 3 7 -1.</_>
        <_>
          2 27 1 7 3.</_></rects>
      <tilted>0</tilted></_>
    <_>
      <rects>
        <_>
          2 23 9 7 -1.</_>
        <_>
          5 23 3 7 3.</_></rects>
      <tilted>0</tilted></_>
    <_>
      <rects>
        <_>
          2 25 22 15 -1.</_>
        <_>
          2 30 22 5 3.</_></rects>
      <tilted>0</tilted></_>
    <_>
      <rects>
        <_>
          2 30 12 3 -1.</_>
        <_>
          6 30 4 3 3.</_></rects>
      <tilted>0</tilted></_>
    <_>
      <rects>
        <_>
          2 33 9 7 -1.</_>
        <_>
          5 33 3 7 3.</_></rects>
      <tilted>0</tilted></_>
    <_>
      <rects>
        <_>
          3 16 2 8 -1.</_>
        <_>
          3 16 1 4 2.</_>
        <_>
          4 20 1 4 2.</_></rects>
      <tilted>0</tilted></_>
    <_>
      <rects>
        <_>
          3 17 10 26 -1.</_>
        <_>
          3 17 5 13 2.</_>
        <_>
          8 30 5 13 2.</_></rects>
      <tilted>0</tilted></_>
    <_>
      <rects>
        <_>
          3 18 8 22 -1.</_>
        <_>
          3 18 4 11 2.</_>
        <_>
          7 29 4 11 2.</_></rects>
      <tilted>0</tilted></_>
    <_>
      <rects>
        <_>
          3 20 10 15 -1.</_>
        <_>
          3 25 10 5 3.</_></rects>
      <tilted>0</tilted></_>
    <_>
      <rects>
        <_>
          3 21 2 2 -1.</_>
        <_>
          4 21 1 2 2.</_></rects>
      <tilted>0</tilted></_>
    <_>
      <rects>
        <_>
          3 21 10 14 -1.</_>
        <_>
          3 21 5 7 2.</_>
        <_>
          8 28 5 7 2.</_></rects>
      <tilted>0</tilted></_>
    <_>
      <rects>
        <_>
          3 24 6 2 -1.</_>
        <_>
          6 24 3 2 2.</_></rects>
      <tilted>0</tilted></_>
    <_>
      <rects>
        <_>
          3 25 9 2 -1.</_>
        <_>
          6 25 3 2 3.</_></rects>
      <tilted>0</tilted></_>
    <_>
      <rects>
        <_>
          3 25 9 4 -1.</_>
        <_>
          6 25 3 4 3.</_></rects>
      <tilted>0</tilted></_>
    <_>
      <rects>
        <_>
          3 25 6 4 -1.</_>
        <_>
          3 27 6 2 2.</_></rects>
      <tilted>0</tilted></_>
    <_>
      <rects>
        <_>
          3 26 4 1 -1.</_>
        <_>
          5 26 2 1 2.</_></rects>
      <tilted>0</tilted></_>
    <_>
      <rects>
        <_>
          3 26 6 1 -1.</_>
        <_>
          6 26 3 1 2.</_></rects>
      <tilted>0</tilted></_>
    <_>
      <rects>
        <_>
          3 26 9 1 -1.</_>
        <_>
          6 26 3 1 3.</_></rects>
      <tilted>0</tilted></_>
    <_>
      <rects>
        <_>
          3 26 6 3 -1.</_>
        <_>
          6 26 3 3 2.</_></rects>
      <tilted>0</tilted></_>
    <_>
      <rects>
        <_>
          3 26 10 5 -1.</_>
        <_>
          8 26 5 5 2.</_></rects>
      <tilted>0</tilted></_>
    <_>
      <rects>
        <_>
          3 27 8 2 -1.</_>
        <_>
          7 27 4 2 2.</_></rects>
      <tilted>0</tilted></_>
    <_>
      <rects>
        <_>
          3 29 6 1 -1.</_>
        <_>
          6 29 3 1 2.</_></rects>
      <tilted>0</tilted></_>
    <_>
      <rects>
        <_>
          3 30 16 1 -1.</_>
        <_>
          11 30 8 1 2.</_></rects>
      <tilted>0</tilted></_>
    <_>
      <rects>
        <_>
          3 31 12 2 -1.</_>
        <_>
          3 31 6 1 2.</_>
        <_>
          9 32 6 1 2.</_></rects>
      <tilted>0</tilted></_>
    <_>
      <rects>
        <_>
          4 16 6 20 -1.</_>
        <_>
          4 16 3 10 2.</_>
        <_>
          7 26 3 10 2.</_></rects>
      <tilted>0</tilted></_>
    <_>
      <rects>
        <_>
          4 18 4 8 -1.</_>
        <_>
          4 18 2 4 2.</_>
        <_>
          6 22 2 4 2.</_></rects>
      <tilted>0</tilted></_>
    <_>
      <rects>
        <_>
          4 19 2 3 -1.</_>
        <_>
          5 19 1 3 2.</_></rects>
      <tilted>0</tilted></_>
    <_>
      <rects>
        <_>
          4 23 8 2 -1.</_>
        <_>
          8 23 4 2 2.</_></rects>
      <tilted>0</tilted></_>
    <_>
      <rects>
        <_>
          4 24 4 1 -1.</_>
        <_>
          6 24 2 1 2.</_></rects>
      <tilted>0</tilted></_>
    <_>
      <rects>
        <_>
          4 24 8 6 -1.</_>
        <_>
          8 24 4 6 2.</_></rects>
      <tilted>0</tilted></_>
    <_>
      <rects>
        <_>
          4 25 6 2 -1.</_>
        <_>
          6 25 2 2 3.</_></rects>
      <tilted>0</tilted></_>
    <_>
      <rects>
        <_>
          4 25 6 1 -1.</_>
        <_>
          7 25 3 1 2.</_></rects>
      <tilted>0</tilted></_>
    <_>
      <rects>
        <_>
          4 25 6 2 -1.</_>
        <_>
          7 25 3 2 2.</_></rects>
      <tilted>0</tilted></_>
    <_>
      <rects>
        <_>
          4 25 7 15 -1.</_>
        <_>
          4 30 7 5 3.</_></rects>
      <tilted>0</tilted></_>
    <_>
      <rects>
        <_>
          4 26 6 4 -1.</_>
        <_>
          6 26 2 4 3.</_></rects>
      <tilted>0</tilted></_>
    <_>
      <rects>
        <_>
          4 26 9 1 -1.</_>
        <_>
          7 26 3 1 3.</_></rects>
      <tilted>0</tilted></_>
    <_>
      <rects>
        <_>
          4 26 6 3 -1.</_>
        <_>
          7 26 3 3 2.</_></rects>
      <tilted>0</tilted></_>
    <_>
      <rects>
        <_>
          4 26 10 2 -1.</_>
        <_>
          9 26 5 2 2.</_></rects>
      <tilted>0</tilted></_>
    <_>
      <rects>
        <_>
          4 27 4 1 -1.</_>
        <_>
          6 27 2 1 2.</_></rects>
      <tilted>0</tilted></_>
    <_>
      <rects>
        <_>
          4 27 4 2 -1.</_>
        <_>
          6 27 2 2 2.</_></rects>
      <tilted>0</tilted></_>
    <_>
      <rects>
        <_>
          4 27 6 4 -1.</_>
        <_>
          4 29 6 2 2.</_></rects>
      <tilted>0</tilted></_>
    <_>
      <rects>
        <_>
          4 28 2 2 -1.</_>
        <_>
          4 29 2 1 2.</_></rects>
      <tilted>0</tilted></_>
    <_>
      <rects>
        <_>
          4 29 6 1 -1.</_>
        <_>
          7 29 3 1 2.</_></rects>
      <tilted>0</tilted></_>
    <_>
      <rects>
        <_>
          4 29 9 1 -1.</_>
        <_>
          7 29 3 1 3.</_></rects>
      <tilted>0</tilted></_>
    <_>
      <rects>
        <_>
          4 30 9 1 -1.</_>
        <_>
          7 30 3 1 3.</_></rects>
      <tilted>0</tilted></_>
    <_>
      <rects>
        <_>
          4 30 10 2 -1.</_>
        <_>
          4 31 10 1 2.</_></rects>
      <tilted>0</tilted></_>
    <_>
      <rects>
        <_>
          4 31 2 1 -1.</_>
        <_>
          5 31 1 1 2.</_></rects>
      <tilted>0</tilted></_>
    <_>
      <rects>
        <_>
          4 31 16 1 -1.</_>
        <_>
          12 31 8 1 2.</_></rects>
      <tilted>0</tilted></_>
    <_>
      <rects>
        <_>
          4 33 6 3 -1.</_>
        <_>
          6 33 2 3 3.</_></rects>
      <tilted>0</tilted></_>
    <_>
      <rects>
        <_>
          5 11 13 9 -1.</_>
        <_>
          5 14 13 3 3.</_></rects>
      <tilted>0</tilted></_>
    <_>
      <rects>
        <_>
          5 12 2 4 -1.</_>
        <_>
          6 12 1 4 2.</_></rects>
      <tilted>0</tilted></_>
    <_>
      <rects>
        <_>
          5 17 30 20 -1.</_>
        <_>
          20 17 15 20 2.</_></rects>
      <tilted>0</tilted></_>
    <_>
      <rects>
        <_>
          5 21 2 4 -1.</_>
        <_>
          5 21 1 2 2.</_>
        <_>
          6 23 1 2 2.</_></rects>
      <tilted>0</tilted></_>
    <_>
      <rects>
        <_>
          5 24 9 1 -1.</_>
        <_>
          8 24 3 1 3.</_></rects>
      <tilted>0</tilted></_>
    <_>
      <rects>
        <_>
          5 24 9 2 -1.</_>
        <_>
          8 24 3 2 3.</_></rects>
      <tilted>0</tilted></_>
    <_>
      <rects>
        <_>
          5 24 8 1 -1.</_>
        <_>
          9 24 4 1 2.</_></rects>
      <tilted>0</tilted></_>
    <_>
      <rects>
        <_>
          5 26 2 2 -1.</_>
        <_>
          6 26 1 2 2.</_></rects>
      <tilted>0</tilted></_>
    <_>
      <rects>
        <_>
          5 26 6 1 -1.</_>
        <_>
          8 26 3 1 2.</_></rects>
      <tilted>0</tilted></_>
    <_>
      <rects>
        <_>
          5 26 18 12 -1.</_>
        <_>
          5 30 18 4 3.</_></rects>
      <tilted>0</tilted></_>
    <_>
      <rects>
        <_>
          5 27 2 1 -1.</_>
        <_>
          6 27 1 1 2.</_></rects>
      <tilted>0</tilted></_>
    <_>
      <rects>
        <_>
          5 27 3 1 -1.</_>
        <_>
          6 27 1 1 3.</_></rects>
      <tilted>0</tilted></_>
    <_>
      <rects>
        <_>
          5 27 6 1 -1.</_>
        <_>
          8 27 3 1 2.</_></rects>
      <tilted>0</tilted></_>
    <_>
      <rects>
        <_>
          5 27 9 1 -1.</_>
        <_>
          8 27 3 1 3.</_></rects>
      <tilted>0</tilted></_>
    <_>
      <rects>
        <_>
          5 28 9 2 -1.</_>
        <_>
          8 28 3 2 3.</_></rects>
      <tilted>0</tilted></_>
    <_>
      <rects>
        <_>
          5 29 9 1 -1.</_>
        <_>
          8 29 3 1 3.</_></rects>
      <tilted>0</tilted></_>
    <_>
      <rects>
        <_>
          5 29 9 2 -1.</_>
        <_>
          8 29 3 2 3.</_></rects>
      <tilted>0</tilted></_>
    <_>
      <rects>
        <_>
          5 29 8 2 -1.</_>
        <_>
          5 29 4 1 2.</_>
        <_>
          9 30 4 1 2.</_></rects>
      <tilted>0</tilted></_>
    <_>
      <rects>
        <_>
          5 30 9 1 -1.</_>
        <_>
          8 30 3 1 3.</_></rects>
      <tilted>0</tilted></_>
    <_>
      <rects>
        <_>
          5 31 9 2 -1.</_>
        <_>
          8 31 3 2 3.</_></rects>
      <tilted>0</tilted></_>
    <_>
      <rects>
        <_>
          5 31 9 3 -1.</_>
        <_>
          8 31 3 3 3.</_></rects>
      <tilted>0</tilted></_>
    <_>
      <rects>
        <_>
          6 18 44 15 -1.</_>
        <_>
          28 18 22 15 2.</_></rects>
      <tilted>0</tilted></_>
    <_>
      <rects>
        <_>
          6 20 3 6 -1.</_>
        <_>
          6 23 3 3 2.</_></rects>
      <tilted>0</tilted></_>
    <_>
      <rects>
        <_>
          6 20 4 4 -1.</_>
        <_>
          6 22 4 2 2.</_></rects>
      <tilted>0</tilted></_>
    <_>
      <rects>
        <_>
          6 20 5 6 -1.</_>
        <_>
          6 23 5 3 2.</_></rects>
      <tilted>0</tilted></_>
    <_>
      <rects>
        <_>
          6 22 2 2 -1.</_>
        <_>
          6 23 2 1 2.</_></rects>
      <tilted>0</tilted></_>
    <_>
      <rects>
        <_>
          6 22 3 6 -1.</_>
        <_>
          6 25 3 3 2.</_></rects>
      <tilted>0</tilted></_>
    <_>
      <rects>
        <_>
          6 24 9 1 -1.</_>
        <_>
          9 24 3 1 3.</_></rects>
      <tilted>0</tilted></_>
    <_>
      <rects>
        <_>
          6 24 4 2 -1.</_>
        <_>
          6 25 4 1 2.</_></rects>
      <tilted>0</tilted></_>
    <_>
      <rects>
        <_>
          6 25 3 2 -1.</_>
        <_>
          7 25 1 2 3.</_></rects>
      <tilted>0</tilted></_>
    <_>
      <rects>
        <_>
          6 26 3 1 -1.</_>
        <_>
          7 26 1 1 3.</_></rects>
      <tilted>0</tilted></_>
    <_>
      <rects>
        <_>
          6 26 9 1 -1.</_>
        <_>
          9 26 3 1 3.</_></rects>
      <tilted>0</tilted></_>
    <_>
      <rects>
        <_>
          6 27 3 1 -1.</_>
        <_>
          7 27 1 1 3.</_></rects>
      <tilted>0</tilted></_>
    <_>
      <rects>
        <_>
          6 29 9 2 -1.</_>
        <_>
          9 29 3 2 3.</_></rects>
      <tilted>0</tilted></_>
    <_>
      <rects>
        <_>
          6 29 9 4 -1.</_>
        <_>
          9 29 3 4 3.</_></rects>
      <tilted>0</tilted></_>
    <_>
      <rects>
        <_>
          6 30 2 2 -1.</_>
        <_>
          6 30 1 1 2.</_>
        <_>
          7 31 1 1 2.</_></rects>
      <tilted>0</tilted></_>
    <_>
      <rects>
        <_>
          6 30 9 1 -1.</_>
        <_>
          9 30 3 1 3.</_></rects>
      <tilted>0</tilted></_>
    <_>
      <rects>
        <_>
          6 30 10 2 -1.</_>
        <_>
          6 31 10 1 2.</_></rects>
      <tilted>0</tilted></_>
    <_>
      <rects>
        <_>
          6 31 9 1 -1.</_>
        <_>
          9 31 3 1 3.</_></rects>
      <tilted>0</tilted></_>
    <_>
      <rects>
        <_>
          6 31 9 2 -1.</_>
        <_>
          9 31 3 2 3.</_></rects>
      <tilted>0</tilted></_>
    <_>
      <rects>
        <_>
          6 31 15 3 -1.</_>
        <_>
          6 32 15 1 3.</_></rects>
      <tilted>0</tilted></_>
    <_>
      <rects>
        <_>
          6 32 9 1 -1.</_>
        <_>
          9 32 3 1 3.</_></rects>
      <tilted>0</tilted></_>
    <_>
      <rects>
        <_>
          6 32 10 3 -1.</_>
        <_>
          6 33 10 1 3.</_></rects>
      <tilted>0</tilted></_>
    <_>
      <rects>
        <_>
          7 19 9 6 -1.</_>
        <_>
          10 19 3 6 3.</_></rects>
      <tilted>0</tilted></_>
    <_>
      <rects>
        <_>
          7 20 2 4 -1.</_>
        <_>
          7 22 2 2 2.</_></rects>
      <tilted>0</tilted></_>
    <_>
      <rects>
        <_>
          7 21 12 10 -1.</_>
        <_>
          7 21 6 5 2.</_>
        <_>
          13 26 6 5 2.</_></rects>
      <tilted>0</tilted></_>
    <_>
      <rects>
        <_>
          7 22 12 3 -1.</_>
        <_>
          7 23 12 1 3.</_></rects>
      <tilted>0</tilted></_>
    <_>
      <rects>
        <_>
          7 23 9 4 -1.</_>
        <_>
          10 23 3 4 3.</_></rects>
      <tilted>0</tilted></_>
    <_>
      <rects>
        <_>
          7 23 4 2 -1.</_>
        <_>
          7 24 4 1 2.</_></rects>
      <tilted>0</tilted></_>
    <_>
      <rects>
        <_>
          7 24 3 1 -1.</_>
        <_>
          8 24 1 1 3.</_></rects>
      <tilted>0</tilted></_>
    <_>
      <rects>
        <_>
          7 24 4 10 -1.</_>
        <_>
          7 24 2 5 2.</_>
        <_>
          9 29 2 5 2.</_></rects>
      <tilted>0</tilted></_>
    <_>
      <rects>
        <_>
          7 24 4 6 -1.</_>
        <_>
          9 24 2 6 2.</_></rects>
      <tilted>0</tilted></_>
    <_>
      <rects>
        <_>
          7 24 9 2 -1.</_>
        <_>
          10 24 3 2 3.</_></rects>
      <tilted>0</tilted></_>
    <_>
      <rects>
        <_>
          7 25 4 1 -1.</_>
        <_>
          9 25 2 1 2.</_></rects>
      <tilted>0</tilted></_>
    <_>
      <rects>
        <_>
          7 25 4 2 -1.</_>
        <_>
          9 25 2 2 2.</_></rects>
      <tilted>0</tilted></_>
    <_>
      <rects>
        <_>
          7 25 6 2 -1.</_>
        <_>
          9 25 2 2 3.</_></rects>
      <tilted>0</tilted></_>
    <_>
      <rects>
        <_>
          7 25 4 3 -1.</_>
        <_>
          9 25 2 3 2.</_></rects>
      <tilted>0</tilted></_>
    <_>
      <rects>
        <_>
          7 26 4 1 -1.</_>
        <_>
          9 26 2 1 2.</_></rects>
      <tilted>0</tilted></_>
    <_>
      <rects>
        <_>
          7 26 9 1 -1.</_>
        <_>
          10 26 3 1 3.</_></rects>
      <tilted>0</tilted></_>
    <_>
      <rects>
        <_>
          7 28 4 1 -1.</_>
        <_>
          9 28 2 1 2.</_></rects>
      <tilted>0</tilted></_>
    <_>
      <rects>
        <_>
          7 29 16 6 -1.</_>
        <_>
          7 31 16 2 3.</_></rects>
      <tilted>0</tilted></_>
    <_>
      <rects>
        <_>
          7 30 2 2 -1.</_>
        <_>
          7 30 1 1 2.</_>
        <_>
          8 31 1 1 2.</_></rects>
      <tilted>0</tilted></_>
    <_>
      <rects>
        <_>
          7 30 9 1 -1.</_>
        <_>
          10 30 3 1 3.</_></rects>
      <tilted>0</tilted></_>
    <_>
      <rects>
        <_>
          7 30 9 2 -1.</_>
        <_>
          10 30 3 2 3.</_></rects>
      <tilted>0</tilted></_>
    <_>
      <rects>
        <_>
          7 31 9 1 -1.</_>
        <_>
          10 31 3 1 3.</_></rects>
      <tilted>0</tilted></_>
    <_>
      <rects>
        <_>
          7 31 7 2 -1.</_>
        <_>
          7 32 7 1 2.</_></rects>
      <tilted>0</tilted></_>
    <_>
      <rects>
        <_>
          7 32 6 2 -1.</_>
        <_>
          9 32 2 2 3.</_></rects>
      <tilted>0</tilted></_>
    <_>
      <rects>
        <_>
          7 32 9 1 -1.</_>
        <_>
          10 32 3 1 3.</_></rects>
      <tilted>0</tilted></_>
    <_>
      <rects>
        <_>
          7 32 9 2 -1.</_>
        <_>
          10 32 3 2 3.</_></rects>
      <tilted>0</tilted></_>
    <_>
      <rects>
        <_>
          8 11 7 24 -1.</_>
        <_>
          8 19 7 8 3.</_></rects>
      <tilted>0</tilted></_>
    <_>
      <rects>
        <_>
          8 11 42 13 -1.</_>
        <_>
          22 11 14 13 3.</_></rects>
      <tilted>0</tilted></_>
    <_>
      <rects>
        <_>
          8 23 1 2 -1.</_>
        <_>
          8 24 1 1 2.</_></rects>
      <tilted>0</tilted></_>
    <_>
      <rects>
        <_>
          8 24 2 1 -1.</_>
        <_>
          9 24 1 1 2.</_></rects>
      <tilted>0</tilted></_>
    <_>
      <rects>
        <_>
          8 25 4 3 -1.</_>
        <_>
          10 25 2 3 2.</_></rects>
      <tilted>0</tilted></_>
    <_>
      <rects>
        <_>
          8 25 6 2 -1.</_>
        <_>
          8 26 6 1 2.</_></rects>
      <tilted>0</tilted></_>
    <_>
      <rects>
        <_>
          8 26 2 2 -1.</_>
        <_>
          8 26 1 1 2.</_>
        <_>
          9 27 1 1 2.</_></rects>
      <tilted>0</tilted></_>
    <_>
      <rects>
        <_>
          8 26 10 18 -1.</_>
        <_>
          8 32 10 6 3.</_></rects>
      <tilted>0</tilted></_>
    <_>
      <rects>
        <_>
          8 27 9 2 -1.</_>
        <_>
          11 27 3 2 3.</_></rects>
      <tilted>0</tilted></_>
    <_>
      <rects>
        <_>
          8 31 12 2 -1.</_>
        <_>
          14 31 6 2 2.</_></rects>
      <tilted>0</tilted></_>
    <_>
      <rects>
        <_>
          8 31 14 2 -1.</_>
        <_>
          15 31 7 2 2.</_></rects>
      <tilted>0</tilted></_>
    <_>
      <rects>
        <_>
          8 32 9 1 -1.</_>
        <_>
          11 32 3 1 3.</_></rects>
      <tilted>0</tilted></_>
    <_>
      <rects>
        <_>
          8 32 11 2 -1.</_>
        <_>
          8 33 11 1 2.</_></rects>
      <tilted>0</tilted></_>
    <_>
      <rects>
        <_>
          8 33 9 1 -1.</_>
        <_>
          11 33 3 1 3.</_></rects>
      <tilted>0</tilted></_>
    <_>
      <rects>
        <_>
          8 33 6 2 -1.</_>
        <_>
          8 33 3 1 2.</_>
        <_>
          11 34 3 1 2.</_></rects>
      <tilted>0</tilted></_>
    <_>
      <rects>
        <_>
          8 33 9 2 -1.</_>
        <_>
          11 33 3 2 3.</_></rects>
      <tilted>0</tilted></_>
    <_>
      <rects>
        <_>
          8 33 10 2 -1.</_>
        <_>
          8 34 10 1 2.</_></rects>
      <tilted>0</tilted></_>
    <_>
      <rects>
        <_>
          9 24 6 12 -1.</_>
        <_>
          9 28 6 4 3.</_></rects>
      <tilted>0</tilted></_>
    <_>
      <rects>
        <_>
          9 26 2 2 -1.</_>
        <_>
          9 26 1 1 2.</_>
        <_>
          10 27 1 1 2.</_></rects>
      <tilted>0</tilted></_>
    <_>
      <rects>
        <_>
          9 26 6 2 -1.</_>
        <_>
          11 26 2 2 3.</_></rects>
      <tilted>0</tilted></_>
    <_>
      <rects>
        <_>
          9 28 4 2 -1.</_>
        <_>
          9 29 4 1 2.</_></rects>
      <tilted>0</tilted></_>
    <_>
      <rects>
        <_>
          9 29 12 3 -1.</_>
        <_>
          13 29 4 3 3.</_></rects>
      <tilted>0</tilted></_>
    <_>
      <rects>
        <_>
          9 31 12 1 -1.</_>
        <_>
          15 31 6 1 2.</_></rects>
      <tilted>0</tilted></_>
    <_>
      <rects>
        <_>
          9 31 14 2 -1.</_>
        <_>
          16 31 7 2 2.</_></rects>
      <tilted>0</tilted></_>
    <_>
      <rects>
        <_>
          9 32 6 4 -1.</_>
        <_>
          9 32 3 2 2.</_>
        <_>
          12 34 3 2 2.</_></rects>
      <tilted>0</tilted></_>
    <_>
      <rects>
        <_>
          9 33 9 3 -1.</_>
        <_>
          12 33 3 3 3.</_></rects>
      <tilted>0</tilted></_>
    <_>
      <rects>
        <_>
          9 34 9 2 -1.</_>
        <_>
          12 34 3 2 3.</_></rects>
      <tilted>0</tilted></_>
    <_>
      <rects>
        <_>
          9 41 3 2 -1.</_>
        <_>
          10 41 1 2 3.</_></rects>
      <tilted>0</tilted></_>
    <_>
      <rects>
        <_>
          9 41 6 3 -1.</_>
        <_>
          12 41 3 3 2.</_></rects>
      <tilted>0</tilted></_>
    <_>
      <rects>
        <_>
          10 13 22 7 -1.</_>
        <_>
          21 13 11 7 2.</_></rects>
      <tilted>0</tilted></_>
    <_>
      <rects>
        <_>
          10 15 5 6 -1.</_>
        <_>
          10 18 5 3 2.</_></rects>
      <tilted>0</tilted></_>
    <_>
      <rects>
        <_>
          10 18 8 16 -1.</_>
        <_>
          10 18 4 8 2.</_>
        <_>
          14 26 4 8 2.</_></rects>
      <tilted>0</tilted></_>
    <_>
      <rects>
        <_>
          10 18 10 10 -1.</_>
        <_>
          10 18 5 5 2.</_>
        <_>
          15 23 5 5 2.</_></rects>
      <tilted>0</tilted></_>
    <_>
      <rects>
        <_>
          10 23 4 4 -1.</_>
        <_>
          10 25 4 2 2.</_></rects>
      <tilted>0</tilted></_>
    <_>
      <rects>
        <_>
          10 24 4 2 -1.</_>
        <_>
          10 25 4 1 2.</_></rects>
      <tilted>0</tilted></_>
    <_>
      <rects>
        <_>
          10 26 1 15 -1.</_>
        <_>
          10 31 1 5 3.</_></rects>
      <tilted>0</tilted></_>
    <_>
      <rects>
        <_>
          10 27 6 1 -1.</_>
        <_>
          13 27 3 1 2.</_></rects>
      <tilted>0</tilted></_>
    <_>
      <rects>
        <_>
          10 29 8 3 -1.</_>
        <_>
          10 30 8 1 3.</_></rects>
      <tilted>0</tilted></_>
    <_>
      <rects>
        <_>
          10 31 4 2 -1.</_>
        <_>
          10 32 4 1 2.</_></rects>
      <tilted>0</tilted></_>
    <_>
      <rects>
        <_>
          10 31 7 2 -1.</_>
        <_>
          10 32 7 1 2.</_></rects>
      <tilted>0</tilted></_>
    <_>
      <rects>
        <_>
          10 32 4 2 -1.</_>
        <_>
          12 32 2 2 2.</_></rects>
      <tilted>0</tilted></_>
    <_>
      <rects>
        <_>
          10 32 6 2 -1.</_>
        <_>
          10 32 3 1 2.</_>
        <_>
          13 33 3 1 2.</_></rects>
      <tilted>0</tilted></_>
    <_>
      <rects>
        <_>
          10 32 10 12 -1.</_>
        <_>
          10 36 10 4 3.</_></rects>
      <tilted>0</tilted></_>
    <_>
      <rects>
        <_>
          10 33 9 1 -1.</_>
        <_>
          13 33 3 1 3.</_></rects>
      <tilted>0</tilted></_>
    <_>
      <rects>
        <_>
          10 33 9 3 -1.</_>
        <_>
          13 33 3 3 3.</_></rects>
      <tilted>0</tilted></_>
    <_>
      <rects>
        <_>
          10 34 9 1 -1.</_>
        <_>
          13 34 3 1 3.</_></rects>
      <tilted>0</tilted></_>
    <_>
      <rects>
        <_>
          10 36 9 1 -1.</_>
        <_>
          13 36 3 1 3.</_></rects>
      <tilted>0</tilted></_>
    <_>
      <rects>
        <_>
          11 14 10 6 -1.</_>
        <_>
          11 14 5 3 2.</_>
        <_>
          16 17 5 3 2.</_></rects>
      <tilted>0</tilted></_>
    <_>
      <rects>
        <_>
          11 20 8 10 -1.</_>
        <_>
          11 20 4 5 2.</_>
        <_>
          15 25 4 5 2.</_></rects>
      <tilted>0</tilted></_>
    <_>
      <rects>
        <_>
          11 24 3 4 -1.</_>
        <_>
          11 26 3 2 2.</_></rects>
      <tilted>0</tilted></_>
    <_>
      <rects>
        <_>
          11 24 10 6 -1.</_>
        <_>
          11 24 5 3 2.</_>
        <_>
          16 27 5 3 2.</_></rects>
      <tilted>0</tilted></_>
    <_>
      <rects>
        <_>
          11 26 4 1 -1.</_>
        <_>
          13 26 2 1 2.</_></rects>
      <tilted>0</tilted></_>
    <_>
      <rects>
        <_>
          11 26 10 4 -1.</_>
        <_>
          11 26 5 2 2.</_>
        <_>
          16 28 5 2 2.</_></rects>
      <tilted>0</tilted></_>
    <_>
      <rects>
        <_>
          11 26 6 9 -1.</_>
        <_>
          11 29 6 3 3.</_></rects>
      <tilted>0</tilted></_>
    <_>
      <rects>
        <_>
          11 26 10 18 -1.</_>
        <_>
          11 32 10 6 3.</_></rects>
      <tilted>0</tilted></_>
    <_>
      <rects>
        <_>
          11 27 2 1 -1.</_>
        <_>
          12 27 1 1 2.</_></rects>
      <tilted>0</tilted></_>
    <_>
      <rects>
        <_>
          11 27 3 2 -1.</_>
        <_>
          12 27 1 2 3.</_></rects>
      <tilted>0</tilted></_>
    <_>
      <rects>
        <_>
          11 27 9 6 -1.</_>
        <_>
          11 30 9 3 2.</_></rects>
      <tilted>0</tilted></_>
    <_>
      <rects>
        <_>
          11 28 3 1 -1.</_>
        <_>
          12 28 1 1 3.</_></rects>
      <tilted>0</tilted></_>
    <_>
      <rects>
        <_>
          11 28 2 6 -1.</_>
        <_>
          12 28 1 6 2.</_></rects>
      <tilted>0</tilted></_>
    <_>
